tree
version=v4
num_class=1
num_tree_per_iteration=1
label_index=0
max_feature_idx=14
objective=binary sigmoid:1
feature_names=target_duration tender_procedureType tender_supplyType tender_mainCpv tender_country tender_year buyer_buyerType buyer_country tender_estimatedPrice_EUR lot_bidsCount tender_indicator_score_INTEGRITY tender_indicator_score_ADMINISTRATIVE tender_indicator_score_TRANSPARENCY tender_estimatedPrice_EUR_log lot_bidsCount_log
feature_infos=[1:32790] -1:5:0:8:4:3:2:1 -1:1:0:2 [3000000:98910000] -1:25:2:23:4:16:8:17:5:12:28:29:19:27:10:11:13:1:9:3:24:26:6:0:22:21:14:7:20:18 [2009:2021] -1:4:3:2:6:5:7:1 -1:3:30:27:29:6:10:19:20:7:16:33:34:22:32:12:13:15:2:11:5:28:31:1:8:25:21:26:17:9:24:18 [1:2113903690] [0:855] [28.571400000000001:100] [0:100] [25:94.444400000000002] [0.69314718055994529:21.471802165646171] [0:6.752270376141742]
tree_sizes=5550

Tree=0
num_leaves=50
num_cat=1
split_feature=0 2 0 5 11 8 3 11 11 3 11 5 12 0 10 3 8 8 14 12 14 8 8 0 3 3 0 0 0 0 0 0 0 0 8 0 10 5 8 10 0 0 0 3 8 3 10 3 5
split_gain=1.75342e+06 0.0505125 0.30049 1.19774 1.50989 0.543632 1.13125 0.254928 0.870491 0.0174933 0.430261 3.43024 0.0128157 0.0584607 0.17493 0.0165864 0.0467714 0.00728344 0.00971984 0.00227626 0.0118617 0.00731236 0.207626 0.253664 0.00346325 0.027439 0.0436842 2.32831e-10 5.82077e-11 2.91038e-11 1.45519e-11 1.45519e-11 1.45519e-11 1.45519e-11 7.27596e-12 5.45697e-12 3.63798e-12 1.81899e-12 1.81899e-12 1.81899e-12 9.09495e-13 9.09495e-13 4.54747e-13 4.54747e-13 4.54747e-13 2.27374e-13 2.27374e-13 1.13687e-13 1.13687e-13
threshold=712.50000000000011 0 721.00000000000011 2015.5000000000002 37.343100000000007 7519893.7400000012 45215135.000000007 30.676050000000004 30.540950000000002 15896500.000000002 58.297100000000007 2015.5000000000002 87.68940000000002 721.00000000000011 79.964900000000014 79605000.000000015 373090.00000000006 1667609.5000000002 1.7005986908310777 77.758750000000006 3.7726948748059121 6002500.0000000009 6462550.5000000009 1078.0000000000002 90711350.000000015 90905000.000000015 918.50000000000011 4108.0000000000009 14.500000000000002 1826.5000000000002 1753.5000000000002 1400.5000000000002 3487.5000000000005 1035.5000000000002 6989739.0000000009 2861.5000000000005 91.652250000000024 2011.5000000000002 46776828.960000008 79.964900000000014 1753.5000000000002 4108.0000000000009 1435.0000000000002 33194160.000000004 1667609.5000000002 45232366.000000007 69.994700000000009 33141120.500000004 2011.5000000000002
decision_type=2 1 2 2 2 2 2 2 2 2 2 2 2 2 2 2 2 2 2 2 2 2 2 2 2 2 2 2 2 2 2 2 2 2 2 2 2 2 2 2 2 2 2 2 2 2 2 2 2
left_child=28 2 3 4 5 6 -2 8 -5 10 30 -12 19 14 -14 17 -17 43 -19 27 21 24 23 -23 29 26 -26 -11 36 -21 31 -3 33 38 -15 -24 -1 44 -4 46 -27 -31 -13 47 -33 -7 -9 -16 -43
right_child=1 9 32 7 -6 45 -8 39 -10 12 11 42 13 34 15 16 -18 18 -20 20 -22 22 35 -25 25 40 -28 -29 -30 41 -32 37 -34 -35 -36 -37 -38 -39 -40 -41 -42 48 -44 -45 -46 -47 -48 -49 -50
leaf_value=-0.4147643186382286 -0.20931084190509802 -0.20931084190509802 -0.20931084190509802 -0.20931084190509802 -0.22024935507931401 -0.20931084190509802 -0.21881746075737163 -0.20931084190509802 -0.21651785812717017 -0.20931084190509802 -0.2207261590288998 -0.20931084190509802 -0.21166573091524657 -0.20931084190509802 -0.20931084190509802 -0.21114293962845967 -0.20931084190509802 -0.21024024583160555 -0.20931084190509802 -0.20931084190509802 -0.20993347028654902 -0.21401464236190929 -0.20931084190509802 -0.20931084190509802 -0.21117998921842662 -0.20931084190509802 -0.20931084190509802 -0.20931084190509802 -0.4147643186382286 -0.20931084190509802 -0.20931084190509802 -0.20931084190509802 -0.20931084190509802 -0.20931084190509802 -0.20931084190509802 -0.20931084190509802 -0.4147643186382286 -0.20931084190509802 -0.20931084190509802 -0.20931084190509802 -0.20931084190509802 -0.20931084190509802 -0.20931084190509802 -0.20931084190509802 -0.20931084190509802 -0.20931084190509802 -0.20931084190509802 -0.20931084190509802 -0.20931084190509802
leaf_weight=3619.0674669742584 68.160345911979675 10580.000359892845 1157.1030151247978 170.94181990623474 54.85206127166748 78.979448437690735 57.854427933692932 72.487986922264099 55.501470267772675 208884.41246390343 74.461356043815613 311.04919761419296 106.16211497783661 3504.8482632040977 66.537480533123016 54.58224081993103 96.29001247882843 53.797921597957611 58.964108765125275 20192.231998860836 80.304722785949707 53.148512601852417 2474.3287476301193 62.209839522838593 53.500330567359924 882.83876609802246 75.192762553691864 1767.8413527011871 163213.83432173729 828.20229834318161 938.55714410543442 462.5166329741478 57.882198512554169 11708.973708450794 309.96728736162186 160.66367250680923 1921.6028995513916 1271.2445467710495 72.487986922264099 1850.0665318965912 86.552820205688477 111.97771114110947 255.33081960678101 397.06106269359589 62.209839522838593 85.470909953117371 161.20462763309479 54.636467754840851 59.505063891410828
leaf_count=14871 126 19558 2139 316 108 146 113 134 107 386140 147 575 199 6479 123 102 178 100 109 37327 149 101 4574 115 100 1632 139 3268 670657 1531 1735 855 107 21645 573 297 7896 2350 134 3420 160 207 472 734 115 158 298 101 110
internal_value=-0.288325 -0.209323 -0.20941 -0.209895 -0.212641 -0.211204 -0.213675 -0.209484 -0.211077 -0.209317 -0.209372 -0.210637 -0.209314 -0.209396 -0.209761 -0.209503 -0.209974 -0.20939 -0.209754 -0.209313 -0.209327 -0.209325 -0.209402 -0.211478 -0.209315 -0.209402 -0.210088 -0.209311 -0.414764 -0.209311 -0.209311 -0.209311 -0.209311 -0.209311 -0.209311 -0.209311 -0.414764 -0.209311 -0.209311 -0.209311 -0.209311 -0.209311 -0.209311 -0.209311 -0.209311 -0.209311 -0.209311 -0.209311 -0.209311
internal_weight=438838 270083 15652 2655.52 345.317 290.465 126.015 2310.2 226.443 254431 13955.4 640.841 240476 4702.85 888.031 781.869 150.872 630.997 112.762 235773 25120.7 25040.4 2750.35 115.358 22290 1098.08 128.693 210652 168755 21191.9 13314.5 12376 12996.4 12938.6 3814.82 2634.99 5540.67 1795.97 1229.59 2083.76 969.392 999.685 566.38 518.235 524.726 164.45 233.693 121.174 171.483
internal_count=1192730 499306 28951 4926 651 543 239 4275 423 470355 25807 1194 444548 8698 1646 1447 280 1167 209 435850 46442 46293 5087 216 41206 2031 239 389408 693424 39175 24613 22878 24025 23918 7052 4871 22767 3320 2273 3852 1792 1848 1047 958 970 304 432 224 317
cat_boundaries=0 1
cat_threshold=4
is_linear=0
shrinkage=1


end of trees

feature_importances:
target_duration=16
tender_mainCpv=8
tender_estimatedPrice_EUR=8
tender_year=4
tender_indicator_score_INTEGRITY=4
tender_indicator_score_ADMINISTRATIVE=4
tender_indicator_score_TRANSPARENCY=2
lot_bidsCount_log=2
tender_supplyType=1

parameters:
[boosting: gbdt]
[objective: binary]
[metric: binary_logloss,auc]
[tree_learner: serial]
[device_type: cpu]
[data_sample_strategy: bagging]
[data: ]
[valid: ]
[num_iterations: 3000]
[learning_rate: 0.05]
[num_leaves: 96]
[num_threads: 0]
[seed: 42]
[deterministic: 0]
[force_col_wise: 0]
[force_row_wise: 0]
[histogram_pool_size: -1]
[max_depth: -1]
[min_data_in_leaf: 100]
[min_sum_hessian_in_leaf: 0.001]
[bagging_fraction: 0.85]
[pos_bagging_fraction: 1]
[neg_bagging_fraction: 1]
[bagging_freq: 1]
[bagging_seed: 400]
[bagging_by_query: 0]
[feature_fraction: 0.85]
[feature_fraction_bynode: 1]
[feature_fraction_seed: 30056]
[extra_trees: 0]
[extra_seed: 12879]
[early_stopping_round: 0]
[early_stopping_min_delta: 0]
[first_metric_only: 0]
[max_delta_step: 0]
[lambda_l1: 0]
[lambda_l2: 0]
[linear_lambda: 0]
[min_gain_to_split: 0]
[drop_rate: 0.1]
[max_drop: 50]
[skip_drop: 0.5]
[xgboost_dart_mode: 0]
[uniform_drop: 0]
[drop_seed: 17869]
[top_rate: 0.2]
[other_rate: 0.1]
[min_data_per_group: 100]
[max_cat_threshold: 32]
[cat_l2: 10]
[cat_smooth: 10]
[max_cat_to_onehot: 4]
[top_k: 20]
[monotone_constraints: ]
[monotone_constraints_method: basic]
[monotone_penalty: 0]
[feature_contri: ]
[forcedsplits_filename: ]
[refit_decay_rate: 0.9]
[cegb_tradeoff: 1]
[cegb_penalty_split: 0]
[cegb_penalty_feature_lazy: ]
[cegb_penalty_feature_coupled: ]
[path_smooth: 0]
[interaction_constraints: ]
[verbosity: -1]
[saved_feature_importance_type: 0]
[use_quantized_grad: 0]
[num_grad_quant_bins: 4]
[quant_train_renew_leaf: 0]
[stochastic_rounding: 1]
[linear_tree: 0]
[max_bin: 255]
[max_bin_by_feature: ]
[min_data_in_bin: 3]
[bin_construct_sample_cnt: 200000]
[data_random_seed: 175]
[is_enable_sparse: 1]
[enable_bundle: 1]
[use_missing: 1]
[zero_as_missing: 0]
[feature_pre_filter: 1]
[pre_partition: 0]
[two_round: 0]
[header: 0]
[label_column: ]
[weight_column: ]
[group_column: ]
[ignore_column: ]
[categorical_feature: 1,2,4,6,7]
[forcedbins_filename: ]
[precise_float_parser: 0]
[parser_config_file: ]
[objective_seed: 16083]
[num_class: 1]
[is_unbalance: 0]
[scale_pos_weight: 2.22282]
[sigmoid: 1]
[boost_from_average: 1]
[reg_sqrt: 0]
[alpha: 0.9]
[fair_c: 1]
[poisson_max_delta_step: 0.7]
[tweedie_variance_power: 1.5]
[lambdarank_truncation_level: 30]
[lambdarank_norm: 1]
[label_gain: ]
[lambdarank_position_bias_regularization: 0]
[eval_at: ]
[multi_error_top_k: 1]
[auc_mu_weights: ]
[num_machines: 1]
[local_listen_port: 12400]
[time_out: 120]
[machine_list_filename: ]
[machines: ]
[gpu_platform_id: -1]
[gpu_device_id: -1]
[gpu_use_dp: 0]
[num_gpu: 1]

end of parameters

pandas_categorical:[["APPROACHING_BIDDERS", "COMPETITIVE_DIALOG", "NEGOTIATED", "NEGOTIATED_WITHOUT_PUBLICATION", "NEGOTIATED_WITH_PUBLICATION", "OPEN", "OTHER", "OUTRIGHT_AWARD", "RESTRICTED"], ["SERVICES", "SUPPLIES", "WORKS"], ["AT", "BE", "BG", "CY", "CZ", "DE", "DK", "EE", "ES", "FI", "FR", "GR", "HR", "HU", "IE", "IS", "IT", "LT", "LU", "LV", "MT", "NL", "NO", "PL", "PT", "RO", "SE", "SI", "SK", "UK"], ["EUROPEAN_AGENCY", "NATIONAL_AGENCY", "NATIONAL_AUTHORITY", "OTHER", "PUBLIC_BODY", "REGIONAL_AGENCY", "REGIONAL_AUTHORITY", "UTILITIES"], ["AD", "AT", "BE", "BG", "CR", "CY", "CZ", "DE", "DK", "EE", "ES", "FI", "FR", "GR", "HR", "HU", "Hrvatska", "IE", "IS", "IT", "LT", "LU", "LV", "MQ", "MT", "NL", "NO", "PL", "PT", "RO", "Romania", "SE", "SI", "SK", "UK"]]
