tree
version=v4
num_class=1
num_tree_per_iteration=1
label_index=0
max_feature_idx=13
objective=binary sigmoid:1
feature_names=tender_procedureType tender_supplyType tender_mainCpv tender_country tender_year buyer_buyerType buyer_country tender_estimatedPrice_EUR lot_bidsCount tender_indicator_score_INTEGRITY tender_indicator_score_ADMINISTRATIVE tender_indicator_score_TRANSPARENCY tender_estimatedPrice_EUR_log lot_bidsCount_log
feature_infos=-1:5:0:8:4:3:2:1 -1:1:0:2 [3000000:98910000] -1:25:2:23:4:16:8:17:5:12:28:29:19:27:10:11:13:1:9:3:24:26:6:0:22:21:14:7:20:18 [2009:2021] -1:4:3:2:6:5:7:1 -1:3:30:27:29:6:10:19:20:7:16:33:34:22:32:12:13:15:2:11:5:28:31:1:8:25:21:26:17:9:24:18 [1:2113903690] [0:855] [28.571400000000001:100] [0:100] [25:94.444400000000002] [0.69314718055994529:21.471802165646171] [0:6.752270376141742]
tree_sizes=13644 13731 13800 13834 13792 13846 13811 13679 13840 13845 13681 13790 13795 13785 13796 13798 13869 13880 13898 13804 13806 13923 13863 13931 13874 13855 13823 13787 13802 13879 13814 13817 13805 13874 13816 13854 13831 13914 13856 13881 13875 13909 13888 13823 13773 13889 13851 13868 13909 13903 13846 13821 13950 13832 13833 13883 13844 13964 13834 13914 13804 13802 13996 13879 13888 13843 13794 13991 13914 13999 13824 13903 13921 13884 13852 13903 13897 13911 14001 13897 13878 13840 13860 13914 13804 13842 13860 13892 13941 13778 13978 13874 13934

Tree=0
num_leaves=128
num_cat=28
split_feature=3 2 2 5 7 11 10 2 0 7 10 7 2 7 2 2 5 11 4 5 11 7 11 1 6 10 3 10 7 11 3 13 3 2 11 11 6 10 10 3 11 10 4 10 7 7 11 7 6 7 4 7 10 2 11 11 11 6 2 11 10 6 10 4 5 5 7 2 13 10 5 11 11 2 11 7 7 11 3 0 2 11 10 5 10 5 2 11 7 13 5 10 2 7 11 2 11 11 11 7 7 11 4 6 6 10 11 2 2 2 10 10 7 2 11 3 1 11 7 10 11 11 4 10 3 7 7
split_gain=394934 83655.1 45435.9 30884.8 30976.5 23409.5 21458.7 23965.6 20907.2 19842 16237.3 14043.3 12113.3 11787.9 11218.1 9361.78 8823.35 10160.2 8273.47 8184.37 8496.38 7309.91 6910.51 6436.72 5944.61 5840.94 5731.26 5072.71 7229.96 4959.2 4538.76 9145.82 4522.96 4518.19 4476.34 10818.1 7934.42 5998.41 5978.14 4430.13 6320.07 4423.92 4187.11 4007.31 5638.26 4353.31 3958.3 3913.23 3850.04 3763.32 3226.74 3269.48 3950.44 3337.73 3169.51 13006.3 3123.62 5551.67 3078.81 3680.72 3489.42 2900.07 2856.89 2818.46 2677.2 2661.43 2879.88 2665.97 2545.98 2399.4 2385.98 2358.74 3812.03 2295.65 3732.97 3581.49 2251.75 2183.56 2180.15 2173.36 2130.81 2108.57 2104.55 2078.94 2021.05 1999.69 2153.65 2000.42 1992.45 2805.99 1855.97 1854.65 1843.42 1892.14 1829.63 1829.5 1803.3 1697.12 1681.97 1672.13 1631.73 1629.44 1558.3 2736.84 1550.62 1546.86 1544.89 1522.65 2256.99 1518.7 1511.69 1496.2 2008.01 1492.78 1491.02 1461.54 1453.38 1437.55 2345.36 1434.34 1394.17 1363.3 1363.2 1362.25 1321.2 1312.92 1602.92
threshold=0 33692205.000000007 18171500.000000004 1 11666793.000000002 42.697500000000012 4.7286500000000009 45233141.500000007 2 180007.50000000003 16.496150000000004 1623483.7750000001 30050000.000000004 1443792.3200000001 33698050.000000007 45233143.000000007 3 42.735000000000007 2020.5000000000002 4 70.042750000000012 2680635.0000000005 55.485350000000004 5 6 36.666650000000011 7 26.637450000000005 107107.50000000001 42.311750000000011 8 5.4715551700911096 9 33141125.500000004 73.124150000000014 80.156250000000014 10 6.0738000000000012 25.503700000000006 11 62.146300000000004 38.019600000000004 2011.5000000000002 38.095250000000007 2633839.0000000005 5681057.0000000009 42.417450000000009 13487962.500000002 12 189849.00000000003 2011.5000000000002 750879.03500000003 18.583950000000005 33141755.000000004 42.741450000000007 42.735000000000007 42.730150000000002 13 15811200.000000002 42.124100000000006 36.913950000000007 14 15.966100000000003 2011.5000000000002 15 16 4560890.0000000009 33621150.000000007 1.7005986908310777 36.666650000000011 17 79.837450000000004 71.662900000000022 33651150.000000007 42.669150000000009 7170520.5000000009 1963186.0000000002 42.311750000000011 18 19 33164100.000000004 42.417450000000009 17.179100000000002 20 0.78660000000000008 21 33610500.000000007 41.97270000000001 484162309.50000006 5.3324269860366096 22 55.086200000000012 30205000.000000004 9973191.0000000019 79.727450000000019 33696350.000000007 76.283750000000012 41.324550000000009 41.574650000000005 330058.50000000006 373090.00000000006 42.124100000000006 2011.5000000000002 23 24 39.183350000000011 42.248950000000001 14212060.000000002 9105000.0000000019 33696350.000000007 57.194650000000003 13.431350000000002 434609.39000000007 33674000.000000007 42.417450000000009 25 26 77.195400000000021 1963186.0000000002 47.162150000000004 42.311750000000011 41.712450000000011 2015.5000000000002 70.227300000000014 27 603699.00000000012 138027.01000000004
decision_type=9 2 2 9 2 2 2 2 9 2 2 2 2 2 2 2 9 2 2 9 2 2 2 1 9 2 9 2 2 2 9 2 9 2 2 2 9 2 2 9 2 2 2 2 2 2 2 2 9 2 2 2 2 2 2 2 2 9 2 2 2 9 2 2 9 9 2 2 2 2 9 2 2 2 2 2 2 2 9 9 2 2 2 9 2 9 2 2 2 2 9 2 2 2 2 2 2 2 2 2 2 2 2 9 9 2 2 2 2 2 2 2 2 2 2 9 1 2 2 2 2 2 2 2 9 2 2
left_child=1 12 5 6 9 58 14 39 18 32 63 16 13 111 -3 123 17 25 43 -14 62 23 -18 27 -24 -10 68 64 79 -20 54 78 -5 -27 49 36 38 42 -36 41 -41 71 84 85 106 101 91 -6 -19 -22 117 53 94 99 55 65 -7 -58 59 105 81 -30 100 -11 82 66 67 98 -12 -40 -31 72 -8 -68 75 113 -25 -60 -32 -29 -51 -61 -17 -47 -38 86 97 -87 -56 -90 -74 121 93 -80 -53 -42 125 -4 -13 -52 -21 -46 103 -50 -26 107 -45 108 -2 -48 -77 -1 -113 -75 119 -15 -28 118 -39 -69 -85 -35 -34 -9 -98 126 -59
right_child=2 3 8 4 47 56 7 15 11 10 26 30 19 115 -16 21 22 48 29 20 34 -23 24 76 104 33 116 28 61 70 31 -33 122 46 35 -37 37 50 69 40 95 -43 -44 44 45 83 109 -49 102 80 51 52 -54 -55 88 -57 57 96 77 60 -62 -63 -64 -65 -66 -67 73 114 -70 -71 -72 -73 90 74 -76 110 -78 -79 92 -81 -82 -83 -84 120 -86 87 -88 -89 89 -91 -92 -93 -94 -95 -96 -97 124 -99 -100 -101 -102 -103 -104 -105 -106 -107 -108 -109 -110 -111 -112 112 -114 -115 -116 -117 -118 -119 -120 -121 -122 -123 -124 -125 -126 -127 -128
leaf_value=-0.39704555172638628 -0.36823473148210883 -0.22197890417708754 -0.27556566200468624 -0.27464663814472157 -0.40601099105882898 -0.22125715996018896 -0.35021302403096494 -0.3694082079582976 -0.24597742505824505 -0.26322317286538655 -0.22755097116147227 -0.23818678518438116 -0.2395036096947521 -0.22239134567901436 -0.39981915024852988 -0.27287551008639688 -0.23789350916335353 -0.32849085589009336 -0.3021993658143195 -0.35906756754492097 -0.24043697697092836 -0.24677717910653973 -0.3375148720451433 -0.39043631487865355 -0.28584546382330395 -0.24358278361583963 -0.28110676307087523 -0.32184077411752898 -0.324429736677456 -0.40580535491275677 -0.38890461993642489 -0.40595360545096565 -0.40283023613147106 -0.30305274445972918 -0.38241153576498244 -0.39773852862401338 -0.40616529016093311 -0.37633398164934301 -0.2272734021149678 -0.26481847543539 -0.30271625617706577 -0.3883381202344241 -0.39733943615625861 -0.31649221434476332 -0.2832332808392099 -0.3964247864905564 -0.40616529016093311 -0.24594357535831807 -0.36064642218923015 -0.28424640639713089 -0.38044412038448649 -0.3181908696197433 -0.37565962868005387 -0.40203705926678063 -0.22729634975477783 -0.40616529016093311 -0.38305608370929123 -0.22699969896530484 -0.34589176867513965 -0.37566769460134969 -0.39918517099728851 -0.24093389614429214 -0.35653816100051428 -0.39244710505027963 -0.3664051977297002 -0.22776114110211226 -0.22594303326016837 -0.32924022469841602 -0.2938974803510786 -0.36052267596025472 -0.29041125633431153 -0.38398832757114187 -0.23180302308182599 -0.40039592585773431 -0.40616529016093311 -0.22644455258160501 -0.2477190003134109 -0.24279471657139823 -0.23334852346369747 -0.40220078640116935 -0.40586441512326277 -0.22125715996018896 -0.3592875446969141 -0.40616529016093311 -0.23275890113895895 -0.27853757313003547 -0.26662439083857731 -0.22782587658270997 -0.23091787553038279 -0.40616529016093311 -0.32956654423821663 -0.23116184241341892 -0.24596137892756451 -0.39801133027895252 -0.22125715996018896 -0.39265648284630555 -0.38217254443083287 -0.40476219748023556 -0.391544052763031 -0.27039062028633709 -0.27215407878673908 -0.40516099583927895 -0.24469498456211353 -0.25676288883771747 -0.24951298404026426 -0.26524867885971276 -0.22331676488273217 -0.36295282952163455 -0.25555305126032501 -0.22125715996018896 -0.35509056474178957 -0.35954446203752327 -0.28448095129928169 -0.29088544856915322 -0.22125715996018896 -0.31888290559263244 -0.38257920163662595 -0.39969834940229476 -0.22125715996018896 -0.23326511303476638 -0.22203854819516242 -0.36665406085995339 -0.33531471636173521 -0.22154491861454045 -0.2865074319606985 -0.23965252304242038 -0.3050381844585584
leaf_weight=1506.7547788619995 662.24389719963074 4489.1249785423279 350.49760603904724 1020.7305948734283 3970.634838104248 2317.925133228302 1714.4237763881683 133.34363961219788 1470.8580093383789 426.77392292022705 19569.22376036644 183.40630412101746 798.65970754623413 1890.1903309822083 855.0811927318573 1428.852329492569 26773.30185174942 1595.5137038230896 3131.6789147853851 583.51906228065491 286.23839235305786 2338.1643843650818 2682.4249787330627 3750.4620399475098 3803.7736001014709 780.04539656639099 536.09377932548523 2303.400349855423 1091.6994252204895 2140.1438574790955 227.52324461936951 826.9244122505188 2178.2139036655426 1257.0971939563751 961.68657445907593 29455.800500869751 152.58928799629211 1217.590078830719 1817.5797603130341 847.08185482025146 469.56081867218018 2832.8182821273804 555.33698153495789 490.94317412376404 256.30839323997498 222.20711183547974 2541.207887172699 335.40713977813721 695.36400675773621 295.05036187171936 455.97327589988708 758.09540438652039 1216.4960904121399 3074.1802644729614 68820.48969078064 984.40776705741882 940.03826236724854 760.11673331260681 930.80084991455078 338.64269685745239 5742.8562910556793 3831.8550643920898 4019.3005263805389 1716.2514955997467 4511.1094634532928 16933.494464635849 6472.6461825370789 906.80885934829712 1245.7957136631012 322.15440821647644 433.72163438796997 856.41246056556702 1427.5465080738068 348.91945099830627 358.23194885253906 3478.6262142658234 238.07867860794067 752.17445755004883 245.6298656463623 957.89907312393188 25889.827484130859 380.08860158920288 950.33423209190369 93.695176839828491 1259.8092532157898 2471.5254626274109 2113.7503416538239 4343.3141617774963 470.46204352378845 304.93521189689636 550.84861898422241 377.09437012672424 12891.117895841599 332.75028109550476 821.71084976196289 18575.306709051132 394.34398984909058 499.03262066841125 688.39707970619202 722.62363934516907 1747.0605654716492 1655.838214635849 8935.5562238693237 1928.9876155853271 6804.5302622318268 553.40212273597717 1354.6287264823914 3062.4436180591583 788.57842469215393 93.247141361236572 195.35481429100037 3887.9925389289856 886.13793444633484 908.03610301017761 889.39786100387573 396.96404814720154 612.28458762168884 8296.346830368042 235.72119998931885 483.42960286140442 748.6675283908844 1493.0166883468628 838.78703689575195 2345.7157175540924 1052.6801459789276 3669.4029650688171 1783.7571280002594
leaf_count=6043 2450 9519 946 2739 16309 4897 6009 495 3500 1095 42673 421 1835 4005 3455 3815 61372 5218 9353 2101 664 5584 9035 14774 10684 1836 1479 7367 3522 8794 899 3396 8872 3766 3705 118356 627 4611 3958 2188 1405 11095 2229 1542 713 897 10442 798 2519 824 1747 2395 4598 12495 149882 4045 3634 1653 3219 1280 23165 8900 14362 6798 16604 36953 14002 2973 3609 1165 1236 3314 3168 1412 1472 7544 571 1764 551 3903 106299 803 3424 385 2818 6750 5501 9484 1043 1253 1808 837 30673 1338 1736 73618 1524 2043 2720 1910 4651 6786 21139 4807 16443 1432 2892 11155 1958 197 695 14019 2477 2601 1879 1256 2360 33511 498 1084 1588 5498 2805 4963 2961 8481 5382
internal_value=-0.298296 -0.347377 -0.258072 -0.316136 -0.281155 -0.316376 -0.336234 -0.345199 -0.250981 -0.263943 -0.24848 -0.24605 -0.377095 -0.326099 -0.250434 -0.312283 -0.263505 -0.287076 -0.294301 -0.382239 -0.383598 -0.321872 -0.251081 -0.331082 -0.277587 -0.327004 -0.236943 -0.317632 -0.293682 -0.340234 -0.236904 -0.260668 -0.356266 -0.345222 -0.38769 -0.379937 -0.355959 -0.366969 -0.289347 -0.37402 -0.385061 -0.344172 -0.292654 -0.276328 -0.309899 -0.348212 -0.358983 -0.393543 -0.262726 -0.40272 -0.375696 -0.352502 -0.314707 -0.377353 -0.233551 -0.245067 -0.26762 -0.280116 -0.35667 -0.364971 -0.387486 -0.25926 -0.333554 -0.366713 -0.346083 -0.240087 -0.2542 -0.292353 -0.231569 -0.247335 -0.386511 -0.316703 -0.301099 -0.243914 -0.265907 -0.255717 -0.381917 -0.299814 -0.251847 -0.345648 -0.404494 -0.29401 -0.307481 -0.275279 -0.251493 -0.259772 -0.291072 -0.246338 -0.228105 -0.299836 -0.258537 -0.324749 -0.249546 -0.328081 -0.267772 -0.390439 -0.267493 -0.351459 -0.359281 -0.312968 -0.293915 -0.388818 -0.253714 -0.284136 -0.262488 -0.336256 -0.248102 -0.344962 -0.306988 -0.39962 -0.233285 -0.35795 -0.345612 -0.321285 -0.266758 -0.23863 -0.335154 -0.392466 -0.351181 -0.295867 -0.243531 -0.337581 -0.383877 -0.229498 -0.312655 -0.256876 -0.28172
internal_weight=405079 182461 222618 88949.3 32450.2 24129.5 56499.1 51154.9 198489 28144.2 24106.4 178183 93511.4 8568.04 5344.21 23880.9 61232 21168 20306 84943.4 84144.7 21401.9 40064 19063.7 13290.7 8012.57 21963.4 15075.1 8184.85 5705.54 116951 14523.9 4037.73 6541.71 77794.8 51323.7 21867.9 18766.5 3101.42 27274 19891.9 7382.05 1967.74 14600.4 4822.29 2976.72 5761.66 4306.04 13155.4 26471.1 16798.7 7049.08 2796.3 4252.78 102427 32831.2 10918.3 8600.34 13211.2 11528.3 6461.59 4923.55 6349.88 2143.03 6890.3 31846.7 14913.3 3151.44 20815 2139.73 2573.87 4549.23 3692.82 11761.8 5289.17 4930.94 3988.54 1682.98 13697 3261.3 26184.9 718.731 2379.19 1064.57 1412.4 9778.12 2963.28 6814.84 69595.9 775.397 1978.4 3127.21 13469.5 578.38 1579.81 19044.9 7660.3 849.53 871.803 1178.6 2330.58 1912.15 11559.9 2624.35 10608.3 5066.67 1845.57 4513.27 1450.82 2634.46 3673.98 6280.89 4774.13 1256.96 2279.64 2287.15 1148.38 9749.66 1453.31 1390.24 842.363 2750.11 3017 2479.06 1447.02 6213.28 2543.87
internal_count=1192730 633933 558797 279038 89537 75758 189501 176527 483039 72430 58014 424129 354895 27800 12974 73922 157293 59759 58910 327095 325260 68464 97534 62880 36162 26076 50121 47535 23692 19383 266836 36857 14416 22576 304146 196359 78003 69175 8828 102605 77211 25394 5674 39527 14803 10369 20740 17107 33683 107787 63501 24881 8729 16152 229979 77801 28532 23635 47226 42243 25248 12422 21114 7893 23843 73756 36803 9077 46282 5123 10030 14299 10985 27726 13724 12252 15345 4983 33461 11270 107123 2083 7239 2870 3445 24724 8490 16234 152178 2296 4976 10101 32562 1889 4131 75023 20001 2989 3141 3657 6752 7499 28465 7326 27127 16995 4434 15563 4408 10639 8239 22539 16496 4013 5936 5261 3839 38620 5109 4057 1973 9264 11677 5458 4485 15516 7035
cat_boundaries=0 1 2 3 4 5 6 8 9 10 11 12 13 15 16 17 18 19 20 21 22 23 24 25 27 28 29 30 31
cat_threshold=25172023 120 5 18 128 1 536871040 2 22 503521280 8388624 204 16777221 155324928 2 1073778720 403710976 96 20 12 524288 288 6 150 16 537919488 1 87070272 4 1 34078720
is_linear=0
shrinkage=1


Tree=1
num_leaves=128
num_cat=31
split_feature=3 2 2 9 5 7 9 10 2 0 7 6 2 10 2 7 4 5 6 7 5 7 4 10 6 7 3 7 7 10 3 3 10 10 2 5 0 6 3 8 7 10 7 10 7 7 7 7 10 10 7 9 9 5 2 5 2 7 7 4 2 9 7 9 9 8 7 9 2 6 5 3 10 7 9 3 5 2 2 2 2 2 4 2 7 2 2 9 2 7 9 4 9 7 7 7 3 9 9 7 8 3 2 3 6 10 5 7 9 10 9 9 4 7 5 6 9 6 9 2 2 7 4 9 4 6 9
split_gain=355897 78221.2 40139.1 31728.7 27890.6 28229.8 22319.5 19382.9 21511.1 18311.5 13354.4 12630.8 10120 9724.8 8583.53 7828.81 7526.92 7396.04 8084.04 6805.55 8312.29 6729.67 6596.33 6151.57 6021.08 5602.22 7022.09 5864.63 4693.18 5011.29 4270.11 4048.62 5180.76 4039.7 4032.34 6092.68 5671.72 4892.63 3988.82 8243.9 3881.29 3734.42 3562.88 3427.07 4958.53 3931.06 3342.04 3308.99 3221.9 3663.08 3170.83 3128.61 3072.94 2996.39 2923.13 2915.85 2695.79 2275.58 3045.48 2228.23 2209.04 5476.71 4043.29 2185.79 2144.84 2100.56 2005.1 2266.28 2095.36 1929.75 1885.25 1849.59 1810.95 1799.62 1766.69 1795.59 1731.69 1910.88 1695.46 1685.18 1676.41 1662.93 1636.38 1623.96 1619.69 1614.61 1557.13 1555.33 1543.03 1513.2 1503.41 1484.04 1435.79 1402.45 1953.65 1392.17 1372.14 1357.26 1352.89 1348.38 1324.91 1315.4 1297.62 1286.8 1284.35 1375.6 2487.54 2765.73 2512.05 2802.68 1732.43 2619.35 1284.2 1283.78 1488.46 1275.04 1224.24 1188.22 1176.15 1175.66 1156.31 1140.54 1105.22 1083.07 1082.63 2501.47 1072.16
threshold=0 33692205.000000007 18171500.000000004 96.371450000000024 1 11666793.000000002 71.650700000000015 4.7286500000000009 45233141.500000007 2 1623483.7750000001 3 33698050.000000007 16.273150000000005 45233143.000000007 2113895.1650000005 2020.5000000000002 4 5 6160080.5000000009 6 2680635.0000000005 2015.5000000000002 1.1760000000000002 7 2529150.0000000005 8 2421125.5000000005 120637.00000000001 37.167950000000005 9 10 56.568650000000005 38.840300000000006 48612500.000000007 11 12 13 14 237.00000000000003 33879.500000000007 37.898950000000006 13487962.500000002 38.095250000000007 2633839.0000000005 5681057.0000000009 922323.50000000012 107107.50000000001 8.4413 58.544950000000007 115351.00000000001 92.856700000000018 96.662350000000018 15 33141050.000000004 16 33610500.000000007 484162309.50000006 576300000.00000012 2011.5000000000002 33141315.000000004 82.176700000000025 300002.30000000005 85.608450000000019 87.591600000000014 4.5000000000000009 6002500.0000000009 83.295400000000015 44961100.000000007 17 18 19 36.96155000000001 1963186.0000000002 69.84620000000001 20 21 33610500.000000007 30205000.000000004 33696350.000000007 63361000.000000007 30050000.000000004 2011.5000000000002 33190500.000000004 9973191.0000000019 33190500.000000004 79419500.000000015 95.543450000000021 33651050.000000007 180007.50000000003 74.565500000000014 2015.5000000000002 57.588850000000001 990133.00000000012 153392.50000000003 186995.11000000002 22 89.603400000000008 71.431500000000014 1085946.0000000002 16.500000000000004 23 50210500.000000007 24 25 38.596050000000005 26 5824445.0000000009 90.804650000000024 36.700700000000005 96.775100000000023 96.863050000000015 2011.5000000000002 1022599.2250000001 27 28 59.977000000000011 29 94.805700000000016 50705000.000000007 45453050.000000007 180007.50000000003 2019.5000000000002 97.099850000000018 2011.5000000000002 30 96.526100000000014
decision_type=9 2 2 2 9 2 2 2 2 9 2 9 2 2 2 2 2 9 9 2 9 2 2 2 9 2 9 2 2 2 9 9 2 2 2 9 9 9 9 2 2 2 2 2 2 2 2 2 2 2 2 2 2 9 2 9 2 2 2 2 2 2 2 2 2 2 2 2 2 9 9 9 2 2 2 9 9 2 2 2 2 2 2 2 2 2 2 2 2 2 2 2 2 2 2 2 9 2 2 2 2 9 2 9 9 2 9 2 2 2 2 2 2 2 9 9 2 9 2 2 2 2 2 2 2 9 2
left_child=1 3 11 23 5 6 46 12 31 16 17 19 -6 59 116 52 43 18 28 53 72 34 24 -1 102 26 27 60 40 88 80 41 79 -31 73 64 91 -38 57 71 -11 66 -7 76 122 97 86 119 55 54 -32 -29 126 74 89 -28 85 92 -59 -8 61 -25 -63 -55 -36 -52 67 -9 93 -54 -47 -40 -21 -16 -2 -76 77 99 84 -33 -15 -27 -64 -56 -73 -18 -3 95 -30 -50 -22 -37 -12 94 -69 121 -96 -46 -81 -4 -91 -24 112 -49 -94 106 107 108 -106 -110 -109 -112 -19 114 -84 -35 -10 -26 -77 -39 -90 -62 -45 -120 125 -20 -5
right_child=2 4 9 15 7 42 13 8 14 10 38 -13 -14 30 21 -17 56 22 124 20 90 -23 101 25 117 81 48 51 29 33 50 32 -34 115 35 36 37 47 39 -41 -42 -43 -44 44 45 70 -48 103 49 -51 65 -53 69 63 83 -57 -58 58 -60 -61 87 62 82 -65 -66 -67 -68 68 -70 -71 -72 78 -74 -75 75 118 -78 -79 -80 98 -82 -83 113 -85 -86 -87 -88 -89 120 100 -92 -93 104 -95 96 -97 -98 -99 -100 -101 -102 -103 -104 -105 105 -107 -108 110 109 -111 111 -113 -114 -115 -116 -117 -118 -119 123 -121 -122 -123 -124 -125 -126 -127 -128
leaf_value=-0.07499307001486448 0.05127063398889322 -0.068258615805019171 0.043658921376609816 -0.07537693445669319 0.10046325434637292 -0.074804727875064633 0.065032671795230271 -0.050517433944741848 0.10107081238582595 -0.0039406680395464629 -0.0085676486545412118 0.065673225214996078 -0.06906198490422992 -0.04987659821016889 -0.06100313891182832 0.087432210345821534 0.014559928944254228 -0.043456865406215253 -0.030798982398816507 0.024580100512832184 -0.047550529654740201 0.07741973942829275 -0.025555200537679987 -0.064689949796614243 0.042247368964692784 0.051996691820477989 0.058835932772590825 -0.074581093822940786 0.086541940257397434 -0.064542237063816205 0.0017055262866205471 0.025860568882038793 0.087832151621920526 -0.070001302690894038 -0.049774399443945912 0.052752778305949502 -0.053594568472869829 0.061618933362423821 -0.056663588990352932 -0.074659497396637409 0.080583471302153653 -0.056982867947260242 0.078703006396507832 0.092019414311478837 -0.066795561090806865 -0.064511257872531841 0.088636809140555994 0.088270615520363541 -0.026379016933465137 -0.075284516660071341 0.095616303286070431 0.10098272451454822 0.013373450396795756 -0.050386415086191579 0.089237607879087716 -0.074125495592405791 0.012692089581396816 -0.058771875863540893 0.095501396810178205 -0.059296927942653482 -0.050413261111610638 -0.062993287240997092 -0.0030769205511309767 0.039708888479452011 0.019683635888206256 0.037015818906791655 0.087919268570708253 -0.013480639232600757 -0.052039179786097421 -0.049257888768334125 0.0809507454962861 0.084471124987013521 -0.063806750563480508 0.076775671539003928 0.018144808056403113 -0.059326669314285319 0.077431366300114379 0.058813998937118514 0.077966802649979197 -0.016567927439900067 0.061178545100699359 -0.073473526385274504 0.087369848156667054 0.017947702958351859 -0.067149324030076812 -0.074689489912490373 0.050633049057438609 0.024671364736957309 -0.04756500179989246 0.032035068987908803 0.07659351337221465 -0.074586248174756425 0.096704751583649232 -0.066060906149691012 0.095796258641887566 -0.066656305844127753 -0.054004351018354387 0.10473367157936703 -0.064197898465527467 -0.070324149847722839 -0.066491281366284627 0.085806513253093269 0.040447598110534201 0.045676848017611141 0.07249713601534917 0.091092728008296583 0.091676336777224671 0.091652746005283697 0.05764235575171904 -0.05197010767501891 -0.07497900504661302 0.077172603221499728 0.027277746886464858 -0.073474732276481547 -0.070266599026627574 0.055896828041285054 -0.039323932655792197 0.074614289376510781 0.06535474455500033 -0.014527374166819705 0.063718042996856072 0.054500817830577607 0.0016096679141387044 -0.034978798547953584 0.075811688464516372 0.067942949491648974 0.1027012347383323
leaf_weight=23267.501242652535 404.4338151216507 2916.5449699610472 371.79364082217216 76.5019151866436 4554.4732723683119 3913.8667616844177 382.18451751768589 1348.3548412919044 2397.5466764867306 1844.7215908616781 294.7455021739006 6485.3751624673605 845.44843146204948 636.34272895753384 2738.9788161218166 3559.8099227249622 555.37024439871311 1734.124509871006 694.25432342290878 661.13643684983253 208.59609994292259 2373.5106456279755 218.31967249512672 6562.8388070315123 3591.0490384399891 217.04499469697475 386.6145394295454 280.42853559553623 1012.5876721590757 3287.1299132555723 818.83097490668297 466.59331083297729 502.74971608817577 189.23885145783424 4007.39483769238 216.77478566765785 1029.6964263021946 540.45869092643261 215.93152737617493 805.80160391330719 2725.5007404237986 2814.3488167822361 332.15589013695717 1529.9504075050354 1756.7368726879358 222.61362889409065 343.49106501042843 3059.8413008451462 3256.1421901881695 1109.6599052548409 19830.560882017016 769.73909178376198 2083.1665482670069 764.72702971100807 1218.5007611364126 2247.6475590467453 3536.2298609316349 484.398970246315 557.15963834524155 1235.6579658836126 527.69312970340252 1494.1958937048912 1791.1410245448351 1900.3203004300594 1161.1231772750616 1321.2038642168045 564.95053051412106 632.56388138234615 636.35789613425732 1895.9371308237314 843.90445958077908 254.42902931571007 1618.735298126936 206.44277442991734 824.60601419210434 6488.107954993844 6835.4333474338055 2138.5811379551888 14433.190287873149 1301.5927657037973 485.06678414344788 14780.408446699381 1270.6974008083344 1379.7463181167841 324.8161755502224 1573.2532976418734 241.548459649086 406.39480918645859 425.46921810507774 2240.4892497807741 3726.3343852758408 1277.6604541242123 45158.611469864845 225.62159405648708 1269.8467748463154 19943.517499431968 134.32183955609798 98.66024512052536 16725.407661229372 483.43224620819092 315.26995180547237 27146.356505215168 915.35170868039131 2873.6005764603615 1382.5104799568653 37934.198283791542 9733.70729342103 4143.207574993372 803.43379037082195 1146.3371021151543 343.631831407547 687.56118039786816 742.19614577293396 132.75413055717945 129.15831859409809 929.15441361069679 132.73709511756897 6957.981072768569 288.12282904982567 1708.6912300437689 340.3118449151516 348.34284342825413 333.48880930244923 893.45177419483662 7871.0068715810776 2026.3527265042067 651.60767722129822
leaf_count=96947 1095 11888 1036 318 9518 16302 960 5186 4994 6104 972 16239 3463 2456 10940 8010 1716 6524 2530 1970 791 5602 769 26477 9961 581 1003 1165 2317 13255 2658 1385 1150 770 15422 580 3982 1411 859 3355 6374 11124 779 3358 7143 907 766 6873 11691 4568 42595 1604 6542 2953 2734 9322 11066 1901 1198 4913 2053 6006 5970 5383 3560 3750 1288 2172 2456 7327 1949 578 6509 489 2508 25713 16121 5514 33943 4563 1247 61172 2931 4257 1323 6537 648 1252 1609 6508 8866 5286 96403 912 2754 81067 532 207 67455 1978 1271 61387 2589 7918 3360 83531 21307 9095 2083 4433 1432 1614 2216 543 525 2439 496 16642 749 5855 879 922 1076 3297 18697 5004 1361
internal_value=0.0290073 -0.0180947 0.0666511 -0.0470439 0.0122108 0.0453658 0.061661 -0.00709974 -0.0157909 0.0732343 0.0777691 0.0119724 0.0739212 0.0767284 0.0153681 0.0370758 0.0326258 0.0609649 0.0393903 -0.0076495 0.0303242 0.00601567 0.0720873 -0.0553153 0.0469098 -0.0477858 -0.0399707 -0.0505529 0.0118755 -0.0136697 0.0842007 -0.0435579 -0.05467 -0.0394073 -0.00298923 0.00598272 0.0253424 0.0385423 0.0866448 0.0655707 0.0464662 -0.0157866 -0.0627962 0.0497103 0.0184795 -0.0181015 -0.0446664 0.0501881 -0.0106163 0.00156273 0.0885521 0.0541015 -0.00100593 -0.0280646 0.0117022 -0.0546696 -0.0113926 0.0899209 0.0237533 -0.0299264 -0.053939 -0.0379432 -0.00150965 0.0138045 -0.0341045 0.0919559 0.00827459 -0.00231985 0.0200996 -0.0165589 0.0507427 0.073034 -0.0380089 -0.0513463 -0.0405737 -0.0449944 0.064915 0.0359589 0.0748874 -0.0585735 -0.00182333 -0.0716577 0.0261304 0.0513806 -0.000551201 -0.0514038 -0.0591651 -0.0625156 0.0500896 -0.00603629 0.069835 -0.0557421 0.0906078 0.0403908 0.0521832 -0.0642175 0.0817641 -0.0576745 -0.0607589 -0.0207721 0.0198812 0.0849401 -0.00531809 0.067868 0.0908963 0.0861943 0.0760545 0.0580034 0.0260976 -0.00680257 0.0786627 0.02647 -0.0222565 0.0602646 0.0729476 0.034468 0.0937058 0.0636465 -0.0517391 0.00377018 0.001889 -0.00869572 0.0758393 -0.0105128 0.0672897 0.0428822 0.0839907
internal_weight=406446 180547 225898 92342.9 88204.5 32457.5 28211.4 55747.1 50347.2 201634 181355 24263.9 5399.92 24709.8 23724.5 8267.02 20279.4 62651.1 21345.7 17778.6 6214.8 21194.2 41305.4 84075.9 13940.7 60808.4 45811 33656.9 10754.1 6183.89 23092 26622.7 18996.3 4405.52 18820.7 15875.2 10706.7 9212.29 118704 16034.2 4570.22 7626.37 4246.02 14614.6 4785.35 2921.92 3501.58 8182.59 12154.1 9519.81 21970.6 1050.17 4707.21 11563.8 8410.15 2634.26 5664.85 102670 1041.56 1617.84 32606.7 11380.8 4817.95 2665.05 5168.52 21151.8 4812.02 4247.07 2898.71 3979.1 1066.52 15228.4 2279.87 2945.42 8898.72 8494.29 9829.24 2993.81 15012.4 18493.6 1121.41 14997.5 3323.75 2598.25 579.245 2128.62 3158.09 21225.9 1778.37 5811.9 3934.93 1494.44 101628 2262.35 2036.73 20819.6 1404.17 1855.4 18027 855.226 2555.76 27364.7 3391.67 5933.44 101333 56174.6 18240.4 8506.68 3332.28 1949.77 5174.4 1031.19 2476.32 1532.61 1399.86 1118.39 2530.28 10549 7669.68 2249.15 765.781 876.036 1863.44 1181.57 10591.6 2720.61 728.11
internal_count=1192589 630455 562134 354127 276328 88962 71881 187366 174385 486061 427453 76073 12981 58579 73408 23558 58608 160066 59978 59834 18136 67918 100088 330569 37932 233622 171869 130515 33747 21269 52706 100977 74553 16464 62316 50887 31905 26039 267387 40058 12478 26424 17081 39289 14640 10206 13302 22057 41354 31029 49003 2769 15548 41698 26461 10325 19319 227329 3099 5873 127746 42452 15975 8336 18982 46345 15300 14012 8826 13869 2856 36703 8479 11429 33362 32267 24649 8528 35844 73403 3703 61753 9969 6991 1901 8253 12536 85294 4805 19470 9657 5866 224230 6370 5458 84042 3286 7350 72018 3014 7779 62156 11329 14791 223258 126855 43324 22017 9876 6516 12141 3046 8740 3999 3456 3209 5490 26603 29759 7266 2488 2975 4434 4046 26231 7534 1679
cat_boundaries=0 1 2 3 5 6 8 9 11 12 13 14 15 16 17 18 19 20 21 22 23 24 25 26 27 28 29 30 31 32 33 35
cat_threshold=25172021 134 5 1077974048 2 18 1229066752 2 40 540016772 2 25171968 25167904 16779269 8 275 269557760 235085826 30 8 200 6 524288 268960000 150 4 268443648 4 573617152 148 24 134221824 151033408 537919488 1
is_linear=0
shrinkage=0.045


Tree=2
num_leaves=128
num_cat=24
split_feature=3 2 2 5 7 11 10 2 0 7 10 7 2 7 2 2 5 4 4 5 11 11 7 3 1 10 3 11 10 7 3 3 11 2 10 3 8 11 7 6 10 11 10 11 2 2 11 7 7 7 10 11 6 11 11 2 11 6 4 5 5 7 2 11 7 11 5 10 8 7 7 11 11 0 10 11 2 11 7 10 7 11 11 7 8 11 2 8 8 11 10 2 11 11 11 4 11 2 10 11 7 2 2 10 7 11 11 11 11 11 4 7 7 6 3 5 1 10 7 7 3 10 1 2 10 7 11
split_gain=321853 72190.6 36167.8 25334.6 25663.8 19472 17695.2 19641.9 16271.7 16083.2 13243.6 11872.5 9919.73 10257.2 9273.19 7791.67 7113.62 11558.5 6642.61 6610.99 8289.08 6513.22 6159.71 5719.03 5369.62 4841.01 4599.1 4468.66 4265.86 6058.05 4015.52 3915.29 5507.53 3875.02 3816.21 3560.29 7551.15 3400.76 3297.88 3270.7 3236.87 4529.18 3072.96 10154 6703.51 7015.81 5776.8 3844.46 2953.31 2846.12 3387.04 2668.43 4637.05 2652.68 11566.4 2588.79 3475.44 2578.84 2393.16 2294.91 2195.76 2365.4 2326.11 2075.95 2035.98 2058.75 2034.24 2971.2 2031.09 2005.98 1975.48 1972.49 1949.4 1917.66 1910.56 2841.42 1904.43 3014.47 2979.41 1842.82 1813.42 1790.12 1705.02 1623.7 2364.33 1623.35 1587.72 1670.63 2141.81 1565.02 1527.08 1504.99 1481.49 1477.8 1401.39 1479.09 1506.86 1400.8 1329.18 1299.74 1277.89 1277.64 1273.85 1270.63 1615.22 1269.06 1248.5 1247.27 1241.9 1220.56 1212.85 1191.63 1427.14 1190.24 1164.24 1159.87 1153.49 1150.72 1122.65 1114.67 1110.74 1082.23 1073.72 1053.48 1038.46 1069.72 1014.38
threshold=0 33692205.000000007 18171500.000000004 1 11666793.000000002 42.697500000000012 4.7286500000000009 45233141.500000007 2 180007.50000000003 16.496150000000004 1623483.7750000001 30050000.000000004 1443792.3200000001 33698050.000000007 45233143.000000007 3 2015.5000000000002 2020.5000000000002 4 42.735000000000007 55.857300000000002 2922451.7150000003 5 6 36.666650000000011 7 42.56600000000001 26.637450000000005 107107.50000000001 8 9 62.146300000000004 33141125.500000004 38.019600000000004 10 237.00000000000003 42.417450000000009 13487962.500000002 11 38.095250000000007 42.660000000000004 2.3306000000000004 79.727450000000019 33141755.000000004 33141050.000000004 80.097300000000004 120637.00000000001 60487.000000000007 2352157.0000000005 18.490000000000006 42.730150000000002 12 42.741450000000007 42.735000000000007 15811200.000000002 41.97270000000001 13 2011.5000000000002 14 15 4560890.0000000009 33621150.000000007 78.950900000000019 2680635.0000000005 42.624850000000002 16 25.962950000000003 4.5000000000000009 7330889.0000000009 1963186.0000000002 60.072450000000011 42.311750000000011 17 36.913950000000007 42.417450000000009 33651150.000000007 42.669150000000009 7170520.5000000009 17.179100000000002 8692633.0000000019 49.583350000000003 42.354000000000006 484162309.50000006 206.00000000000003 76.283750000000012 30205000.000000004 61.500000000000007 76.500000000000014 68.401750000000007 55.086200000000012 33696350.000000007 41.574650000000005 72.654550000000015 79.675350000000023 2010.5000000000002 69.952050000000014 33696350.000000007 57.194650000000003 42.396700000000003 88206.000000000015 33674000.000000007 50210500.000000007 13.431350000000002 434609.39000000007 42.248950000000001 42.417450000000009 70.466800000000021 62.146300000000004 41.712450000000011 2015.5000000000002 603699.00000000012 138027.01000000004 18 19 20 21 47.162150000000004 13359100.500000002 88206.000000000015 22 70.227300000000014 23 55050000.000000007 6.7083500000000003 10859943.500000002 50.055800000000012
decision_type=9 2 2 9 2 2 2 2 9 2 2 2 2 2 2 2 9 2 2 9 2 2 2 9 1 2 9 2 2 2 9 9 2 2 2 9 2 2 2 9 2 2 2 2 2 2 2 2 2 2 2 2 9 2 2 2 2 9 2 9 9 2 2 2 2 2 9 2 2 2 2 2 2 9 2 2 2 2 2 2 2 2 2 2 2 2 2 2 2 2 2 2 2 2 2 2 2 2 2 2 2 2 2 2 2 2 2 2 2 2 2 2 2 9 9 9 1 2 2 2 9 2 1 2 2 2 2
left_child=1 12 5 4 9 55 14 31 18 30 58 19 13 103 -5 121 42 49 40 20 25 -21 24 102 28 -10 68 -20 59 73 -3 34 115 -27 66 53 81 90 -6 -22 82 64 46 44 45 63 -14 71 -19 93 80 -7 -53 54 60 56 69 -31 -11 79 61 62 92 -44 105 99 67 -8 -12 -2 -26 -46 -57 -30 75 -58 -63 78 101 119 -51 -37 -4 -55 -85 111 -83 122 -89 -69 109 -34 -13 107 95 96 -49 -39 -80 -66 -41 -78 108 -1 -105 -42 117 -18 -23 -35 -32 112 -54 -25 -87 -33 -28 -64 -101 -17 -15 -9 -88 -75 -68 -126 -84
right_child=2 3 8 6 38 51 7 15 11 10 26 35 16 120 -16 22 17 48 27 21 39 23 -24 113 70 33 116 -29 29 57 110 32 91 37 -36 36 -38 97 -40 100 41 -43 43 -45 47 -47 -48 94 -50 50 -52 52 85 83 -56 72 74 -59 -60 -61 -62 76 106 -65 65 -67 124 89 -70 -71 -72 -73 -74 123 -76 -77 77 -79 98 -81 -82 86 126 84 -86 114 87 88 -90 -91 -92 -93 -94 -95 -96 -97 -98 -99 -100 118 -102 -103 -104 104 -106 -107 -108 -109 -110 -111 -112 -113 -114 -115 -116 -117 -118 -119 -120 -121 -122 -123 -124 -125 125 -127 -128
leaf_value=-0.065387896040246196 -0.017896280494029661 0.049896560998120384 0.04544323783796847 0.09514209339164241 -0.072640423037143478 0.097004281193174183 -0.03141239406115371 -0.036625779933721313 0.074507344833156144 0.059509535086420776 0.090656934132492539 0.081700060312020747 -0.072847983474089439 0.095841209121907439 -0.066946239059591128 -0.036681047418125001 -0.053815197373844541 -0.056389597172557385 0.01495984929272059 0.081084265203306236 -0.0014860532194121156 0.024970178379127423 0.075271716130532212 0.038934802751857102 -0.058330855212265248 0.077577037813074859 0.042920526746017824 -0.07376139928405831 -0.069862414416542756 -0.044957285665188793 -0.070984946813805641 0.083709469976529852 0.022122878838774358 0.024169672827469572 -0.055691616626544219 0.088164329878710562 -0.07250010987910438 -0.073275368017022863 0.074061774449401749 0.096638436406256731 0.014085781639306407 -0.065343025363794924 -0.025427381842207764 -0.066119226825551741 -0.069241977190305823 0.091530986574009598 0.097038782437898111 0.082217772693605806 0.075990809492594652 0.064126523746558223 -0.064526664307048009 -0.051815057990860017 0.092537136238413101 0.090816472430872985 -0.07783811262199225 -0.017960285909094258 -0.05797271630398057 0.072980376631516033 -0.060827832481266775 -0.035632658394049201 0.090313523780556654 0.091957743031287301 -0.00025795052105533376 0.063625854054105757 0.03001329697318695 0.096818661011769822 0.097197721229459771 0.00026566537667183603 0.029478775566788226 0.056140219246332529 0.071365957419922035 0.08428001886946615 0.079286082041836459 0.052583628855987496 -0.061510460721081912 0.10110480156580981 -0.069438248776692205 -0.07281340654060664 0.09123191255845757 -0.030445284650009379 -0.073023240865793163 -0.023979067223608382 0.090181163582533641 0.087968658924451465 -0.073267853459638391 -0.053515877922978919 0.027236090529413646 -0.079666019081961734 0.075125054567062435 0.088227435419037159 0.087566419324847627 -0.060010081665301709 -0.060768534023052781 -0.056478328753930343 0.11503382864003134 -0.06168598661676547 -0.072636428895950678 0.09679720290574749 -0.029362711854491911 -0.073159457275091863 0.059816447985330361 0.032459964102273552 0.040327657865586938 -0.030117031113466856 0.038833709030005673 0.096557178890953194 0.097025657976058777 0.047994906353331084 -0.044391782786975552 -0.036135665832002985 -0.0066634011197740355 0.081013859358873688 0.019282802444926618 0.070724735317724829 0.035865167136740428 -0.050630534253270576 -0.048298819724611343 0.085493127419900491 0.096818661011769822 0.06870606972270199 0.0073521860378569764 0.095494980949101721 0.073639515121962262 -0.014012115955265024 -0.052820756624666822 0.089689149772773674 0.016761739416837736
leaf_weight=1489.4747532755136 3286.9255978316069 1048.0458353161812 5617.7222781926394 4618.9941317588091 3844.6225129812956 2402.0901993513107 984.25759315490723 132.39281716942787 1485.8985108733177 419.67083892226219 19909.747199565172 188.12457525730133 23011.766343012452 1925.5146915614605 845.59110246598721 244.64210000634193 449.06225523352623 395.07095900177956 4053.0138375908136 27506.820455938578 1603.0706797987223 740.94572831690311 2287.5464515984058 3803.6437745243311 3653.4428287148476 794.8317506313324 520.3266604244709 1604.7808058708906 944.72921241819859 406.69246317446232 2084.4634398072958 691.89249855279922 463.5806377530098 1251.8456974029541 2765.2418973445892 6124.700842320919 800.34452801942825 2489.133342191577 337.54712422192097 2388.0381979942322 525.97027564048767 1059.0830791592598 4152.7951828688383 27522.688345938921 229.38648028671741 1739.966995254159 412.58248028159142 300.4054813683033 2505.5485733151436 1303.8919565528631 950.36264631152153 920.3669665157795 768.5454406440258 69031.300209164619 977.53842329978943 918.12065793573856 554.17261789739132 4459.8940424919128 1651.9514432549477 4486.7957659363747 17310.435678213835 6587.9947739243507 920.78125822544098 607.64507201313972 648.8341306746006 405.45004361867905 118.71988639235497 567.27999629080296 1163.1040420234203 956.78667823970318 254.37294837832451 648.8366466909647 765.43045867979527 689.6201967895031 6266.066938906908 385.57619962096214 340.48966178297997 345.13687747716904 3540.1977867633104 926.00340434908867 229.60024610161781 467.29052901268005 3907.287227332592 474.01564002037048 301.17850065231323 387.08389391005039 1180.3749217838049 372.09744074940681 352.49349144101143 1473.5561347305775 381.15116588771343 17742.034671962261 689.6178260743618 9802.0369847565889 97.275017201900482 7773.7169701904058 220.76004709303379 102.09123116731644 195.28671742975712 739.13655106723309 9505.5161399394274 929.0901218354702 829.98374275863171 3792.4546289741993 840.45135197043419 1341.5343619585037 905.44712156057358 532.75372892618179 1774.8172857314348 1486.8506422489882 830.01743982732296 3740.5401755422354 1799.571812838316 6880.3523175418377 1145.5978969633579 155.57040674984455 609.58016015589237 483.1899805366993 88.057169377803802 1200.6910868138075 351.40511660277843 2427.5518060177565 6985.429601252079 1590.1542531251907 1318.3387404829264 116.04999172687531 422.24847795069218
leaf_count=6120 11552 2773 15088 9568 16277 4966 3625 497 3478 1057 42357 422 97446 3989 3515 892 1756 1561 12552 61756 5236 2237 5308 10536 14724 1842 1418 6755 3963 1553 8752 1572 1384 3748 11077 13356 3387 10505 787 4991 1617 4369 14865 113920 936 3778 853 679 5950 3236 3917 3639 1637 146789 4008 3214 2193 10542 6726 16732 36938 13938 3002 1569 1877 838 254 1884 3358 2515 602 1470 1766 1842 25402 803 1412 1462 7512 3370 971 1677 8416 1031 1271 1501 3350 1507 818 3195 830 72058 2743 39323 210 31673 929 211 689 3122 23809 2637 2322 13893 2360 2772 1872 1453 6754 5527 2786 8476 5374 16324 3208 597 2382 1058 182 2915 1105 5018 16332 5459 5157 259 1253
internal_value=0.0276117 -0.0174698 0.0631749 0.0116161 0.0432219 0.0112925 -0.00683047 -0.0152184 0.0693896 0.0586438 0.0723653 0.0736509 -0.0455058 0.00109365 0.0700605 0.0145146 -0.050228 -0.0233989 0.0312347 0.0578515 0.0375251 0.0683416 0.00553765 0.0434069 -0.00292179 0.00122193 0.0825183 -0.0102051 0.00935558 0.0314868 -0.0254139 -0.0419192 -0.0526711 -0.0155159 -0.0139319 0.0819896 0.0622449 -0.028472 -0.0607999 0.0590492 0.0471456 0.0168299 -0.0567177 -0.0496224 -0.0208326 0.0142034 -0.0698557 -0.0454 0.0579603 -0.0412035 0.00222403 0.0549864 0.0434669 0.08509 0.0746712 -0.0258495 -0.0335107 0.0631821 -0.0364498 -0.0167544 0.0792674 0.0665219 0.0321246 -0.0140602 0.0400437 0.00700488 0.0112605 0.0326978 0.0872388 -0.00120402 -0.0498885 0.044181 0.026253 -0.0163493 -0.052537 0.00729633 0.0757607 0.0558165 0.0646865 0.0190349 0.0435919 0.0692506 0.0617988 0.0900892 0.025325 0.0546468 0.0568714 0.061121 -0.00436443 0.0637772 0.00317464 -0.0579187 -0.0302336 -0.0512061 -0.0547745 -0.0567658 0.0166232 -0.0665747 0.0849274 -0.0176661 0.0671533 0.0051318 -0.00799061 -0.0292326 -0.0176087 0.0733297 0.0558251 0.00142908 -0.0239632 -0.00857037 -0.0524867 0.0648086 0.0412052 0.0594541 0.0131765 0.0594387 -0.00623674 0.0292541 -0.0550648 0.0508679 0.0826376 0.0886621 0.0669319 0.00610598 -0.0305084 -0.0412909 0.0830208
internal_weight=406508 179270 227238 87984.7 32419.1 24296.9 55565.6 50101.1 202941 28236.9 24274.4 182528 91285.5 8399.3 5464.59 23704.5 82886.2 16168.3 20413.1 63025 21488.4 41536.6 21144.6 14029.7 18857 7991.8 22202.8 5657.79 14949.2 8091.09 3962.53 26396.5 19053.1 6505.9 7343.44 119503 16282.7 5711.07 4182.17 13496.6 14755.3 4808.07 66717.8 43293.5 15770.8 6500.41 23424.3 9270.38 2900.62 13267.7 2483.85 11163.8 8761.71 103220 33413.3 13133.1 11449.5 4866.59 2071.62 6858.13 32435.8 15125.4 3187.16 4760.44 3748.98 1881.48 4578.2 3025.09 21072.9 4243.71 3907.82 878.223 1683.55 3224.5 7205.82 939.749 11938.2 5350.2 5005.06 2371.34 1533.49 15482.4 9947.26 69806.5 775.194 7841.34 9357.69 8890.4 724.591 2040.84 3119.85 18205.6 877.742 10783.9 8392.16 8294.88 521.166 2591.22 3735.48 1476.03 11893.6 1269.58 3345.75 6122.38 4632.91 1867.5 2309.42 981.816 2515.76 2738.7 2914.48 6308.66 2568.12 10684 1532.68 847.463 1129.91 1403.97 827.194 1445.33 2276.92 2559.94 8165.8 2279.77 1553.11 1434.39 4329.54
internal_count=1192601 630197 562404 276235 88673 76246 187562 174479 486158 71609 57298 427317 353962 27467 13083 73417 326495 58167 58841 160106 60177 99929 67902 38173 62594 26141 49515 19307 47268 23359 14311 101062 75611 22663 25451 267211 40427 20821 17064 34036 39534 14777 268328 170029 56109 20212 98299 35897 7511 50656 8124 28801 23835 226784 77693 47445 42465 12095 7783 23909 73685 36747 9097 16434 10408 6019 14374 8704 45715 14067 15326 2406 4980 11264 28398 2996 27650 13712 12250 7177 4207 37040 24757 149091 2302 20196 23684 22007 2325 5079 10105 73442 3165 42532 33491 33281 1608 10716 8201 5181 28800 4049 11313 22373 16253 4389 5932 3209 8991 9275 11538 15487 7011 26860 4709 2169 3800 4060 3304 3807 5094 5515 19682 7301 5670 5416 9669
cat_boundaries=0 1 2 3 4 5 6 7 8 9 10 11 13 14 15 16 17 18 19 20 21 22 23 24 25
cat_threshold=25172021 134 5 52 18 302252034 1 20 8388624 16777221 167976962 155324928 2 1073778720 1056768 96 20 24 17 185636544 34078720 64 1 4 4
is_linear=0
shrinkage=0.045


Tree=3
num_leaves=128
num_cat=18
split_feature=3 2 2 9 9 11 0 10 7 7 7 1 7 8 7 4 3 10 11 11 10 2 2 7 10 11 3 2 7 3 11 3 8 2 2 2 11 10 11 4 11 11 10 7 2 9 11 9 9 2 10 11 11 11 0 10 11 11 1 11 3 7 2 1 9 9 8 7 7 9 7 3 7 10 11 3 11 10 3 11 10 2 10 7 8 10 11 2 8 8 7 8 11 9 3 8 9 7 3 7 3 2 2 2 7 7 2 7 2 11 9 2 7 11 9 4 2 3 10 10 10 7 11 10 9 10 2
split_gain=292788 66439.3 33063.4 27564.7 22933.9 17546.6 14550.1 13635.6 19459.6 19613.1 11852.7 13591.1 10725.6 10224.9 6624.38 6179.02 6122.2 5506.34 9617.9 5053.94 5045.19 4834.29 5778.49 5239.79 4577.91 4111.43 4084.92 3582.03 6341.61 4336.38 3567.09 3279.11 6876.82 3171.9 3150.72 7078.58 7865.87 5377.22 4608.17 4220.98 3144.68 3069.56 2867.18 6878.94 2833.75 2812.62 2685.72 2684.03 2668.09 2567.6 2555.18 2791.48 2454.84 2875.72 2419.97 3887.99 2375.7 10493.7 2325.38 2284.87 3074.05 2168.16 2145.46 2126.5 2099.4 2190.19 2076.08 1982.91 1947.9 1935.45 1918.91 1912.38 1867.48 1856.66 1802.35 1780.29 1752.96 1694.8 1689.77 1674.66 1626.35 1570.35 1542.67 1410.81 2152.79 1405.71 1883.93 1393.99 1495.32 1947.19 1391.07 1353.97 1336.96 1281.91 1276.75 1276.27 1250.47 1233.49 1204.49 1311.3 1203.09 1880.83 1196.13 1911.09 1401.66 1196.46 1170.06 1152.89 1830.49 1344.59 1167.89 1843.03 1606.47 2127.28 1141.32 1439.59 1181.74 1122.41 1103.92 1087.58 1078.23 1072.08 1164.7 1069.39 1675.48 1066.95 1046.61
threshold=0 33692205.000000007 18171500.000000004 96.371450000000024 91.798200000000023 42.697500000000012 1 23.841700000000003 11666793.000000002 180007.50000000003 107107.50000000001 2 1623483.7750000001 3.5000000000000004 1493446.5050000001 2020.5000000000002 3 1.1760000000000002 79.837450000000004 79.792600000000007 46.770850000000003 33141605.000000004 33141050.000000004 186995.11000000002 7.7171000000000012 42.311750000000011 4 45233120.500000007 943186.25000000012 5 60.072450000000011 6 237.00000000000003 37155000.000000007 33198600.000000004 33674000.000000007 42.735000000000007 36.666650000000011 42.145850000000003 2011.5000000000002 55.857300000000002 77.758750000000006 39.490450000000003 2633839.0000000005 45453050.000000007 73.421950000000024 62.146300000000004 96.662350000000018 98.782750000000007 45331105.000000007 36.96155000000001 41.712450000000011 42.730150000000002 42.840900000000012 7 56.070200000000007 42.741450000000007 42.735000000000007 8 76.467100000000016 9 4869347.0000000009 45453050.000000007 10 89.603400000000008 89.78285000000001 1.5000000000000002 150072.00000000003 1826614.5700000001 58.47610000000001 195028.45500000005 11 7170520.5000000009 37.669700000000013 42.536100000000012 12 76.283750000000012 59.148550000000007 13 49.583350000000003 13.250300000000001 33696350.000000007 4.7286500000000009 484162309.50000006 206.00000000000003 17.343100000000003 76.134400000000014 30205000.000000004 61.500000000000007 76.500000000000014 81808.500000000015 8.5000000000000018 42.504350000000009 88.561150000000012 14 19.500000000000004 88.96390000000001 4762249.5000000009 15 519855.00000000006 16 33696350.000000007 85141100.000000015 71311225.000000015 93162.500000000015 4199751.0000000009 48612500.000000007 4112207.5000000005 33674000.000000007 42.396700000000003 89.313550000000006 33745650.000000007 3774093.5000000005 40.503250000000001 89.603400000000008 2019.5000000000002 32320600.000000004 17 28.571450000000002 6.0738000000000012 40.682850000000009 1575716.5000000002 42.018150000000013 37.898950000000006 98.276700000000019 45.485900000000008 33050000.000000004
decision_type=9 2 2 2 2 2 9 2 2 2 2 1 2 2 2 2 9 2 2 2 2 2 2 2 2 2 9 2 2 9 2 9 2 2 2 2 2 2 2 2 2 2 2 2 2 2 2 2 2 2 2 2 2 2 9 2 2 2 1 2 9 2 2 1 2 2 2 2 2 2 2 9 2 2 2 9 2 2 9 2 2 2 2 2 2 2 2 2 2 2 2 2 2 2 9 2 2 2 9 2 9 2 2 2 2 2 2 2 2 2 2 2 2 2 2 2 2 9 2 2 2 2 2 2 2 2 2
left_child=1 3 5 17 7 48 15 24 9 54 62 20 26 27 47 42 -10 -1 19 21 72 22 45 66 93 96 106 28 118 -30 80 56 79 -15 121 36 37 -36 123 78 -37 59 74 -44 46 -19 -26 -5 50 71 90 -52 -7 -54 -9 67 57 69 -29 60 -13 -27 -6 -43 -60 -66 -23 -56 -35 -14 -47 -42 -12 -50 92 -49 98 -53 -38 -33 -25 -63 -24 -58 -85 119 126 125 -89 -90 -2 -22 114 100 -78 -41 -17 107 -55 -100 -3 -102 103 104 -46 -105 -8 109 -109 110 -71 112 113 -112 115 116 -4 -70 -11 -72 -97 122 -28 124 -39 -81 -87
right_child=2 4 6 14 10 52 12 8 16 13 11 41 31 33 -16 25 -18 18 -20 -21 91 23 82 30 44 61 34 58 29 -31 -32 32 -34 68 35 40 39 38 -40 95 49 63 43 -45 102 70 -48 75 73 -51 51 77 53 76 55 -57 83 -59 64 -61 -62 81 -64 -65 65 -67 -68 -69 117 97 85 -73 -74 -75 -76 -77 94 -79 -80 87 -82 -83 -84 84 -86 86 -88 88 89 -91 -92 -93 -94 -95 -96 120 -98 -99 99 -101 101 -103 -104 105 -106 -107 -108 108 -110 -111 111 -113 -114 -115 -116 -117 -118 -119 -120 -121 -122 -123 -124 -125 -126 -127 -128
leaf_value=-0.070876391014668569 -0.054859883614876447 0.053661521237199084 -0.023248280876401396 0.075331011667245276 -0.062567077028692145 0.092196599785665995 -0.026364643325273551 -0.068842430664346727 -0.070297104609709837 0.056790978972394955 -0.050110978902517728 0.070155892834847355 -0.079117988230749031 0.067831609047718913 0.077733606136788883 0.041031932804044317 0.087397087633341294 -0.056987342972906925 -0.062011992220823514 0.092598935246075889 0.087163687911022456 -0.035395374676931657 -0.072354219642179571 0.09491846575991901 0.055666391920126748 -0.072521837318302709 0.04662768686134168 -0.039615314233120716 0.087381338956048119 -0.042373383599960505 -0.062207015804304898 0.083851966082586854 -0.070548688972119508 -0.039112154442603832 0.080656285421963764 0.073821026220766278 -0.071172851068719123 -0.077053846279147215 -0.070704246070600427 0.067198630880418983 0.058065876685097884 -0.019973298280322398 0.074368466638005767 -0.065732500441457134 -0.049920296665403117 -0.032834326142010005 -0.061678516261413366 0.0087725724255094204 -0.058507607644334138 0.057215298308411315 0.0039436664137392895 -0.062751830390217311 -0.072376007968962583 0.086056358816474887 -0.010618603473452887 0.084105286417832215 0.086401972643666988 -0.075379003899911354 0.082290655398137055 0.091640689392063851 -0.034543536522912047 0.10352311734645583 0.023798614088527691 0.056332003905622881 -0.072939411988214894 0.062177173744993888 0.061311264573079345 -0.062854276592983122 -0.010853087736587049 0.08350328766787761 0.068688780888593703 -0.017073387070284024 0.053026370219736031 0.067705431511363115 0.080987601734711367 -0.053953710552479016 -0.046154741295491568 0.094086185336373557 0.072543262503900988 0.079187117733966791 -0.06802778962383961 -0.075234503989819707 0.07553502838503369 0.083451445131254132 -0.071270784101196208 0.033911513608185034 0.073710448624549813 0.06321210240782317 -0.077189855137085733 0.070846717761578734 0.014986201409374679 -0.064481905043552903 -0.071378966761630511 0.086673897230082841 0.034647881791476348 -0.085728012625978969 -0.023776744133393816 0.081323405061425089 0.014718031440582764 0.064020020162789876 0.091202602332690827 -0.069887426987860088 0.032283977684021047 -0.050029970790968076 0.034801571012811505 0.084261146461790309 0.043961975827110075 -0.025344426452300412 0.080220794965700684 0.089339619170915249 0.082007837277571521 0.089427829093549405 0.097596088081522078 -0.056284670601002722 0.08458549318200341 0.015373318258799592 0.0652169765333383 0.083442573071035323 -0.052607268759158651 -0.029227415981702531 0.098763027983364837 -0.029234527926010234 0.078093098390779742 0.081303817779111179 0.10673865913468034 -0.066752304768175064 -0.046826556718703415
leaf_weight=22448.386672973633 728.85622008144855 604.78512635827065 335.9972992837429 738.67300315201283 2171.755583524704 2404.561522603035 1549.4097974300385 2374.216351762414 6451.7237792909145 212.31607690453529 3193.5174872875214 3213.0112837553024 163.13867300748825 927.56376804411411 3823.0806309729815 2318.5598246157169 533.41502192616463 3181.1125396341085 31051.902990356088 712.26978433132172 1020.872308537364 738.5136252194643 155.49246902763844 440.50404340028763 410.62733614444733 2057.0631601065397 2790.4257947802544 356.2329538911581 2957.9091116338968 630.05785037577152 12151.563382029533 6210.7821110934019 787.66376733779907 3567.9049423336983 854.61066158115864 18474.489226028323 723.05607564747334 285.03889267146587 3085.6688902676105 6489.0807509571314 1023.7002037614584 991.32372181117535 1426.3884169757366 1412.4105554670095 559.17471858859062 3325.0323118418455 10353.722307935357 2102.3259105831385 312.5433808863163 7470.6977750509977 1812.9465192854404 6291.992236405611 431.78271168470383 2048.5621396750212 4652.2348720878363 701.7747598439455 69422.285881146789 961.17410004138947 12109.502593576908 11579.199780017138 686.51560913026333 273.86257034540176 795.91533072292805 2912.2421919107437 364.1731444299221 729.72593706846237 1148.7848559617996 2152.5038789510727 575.74508932232857 1260.2171915918589 264.95178546011448 2030.744649246335 400.04044020175934 963.97739984095097 3716.0194924622774 1613.6185311824083 602.05265964567661 142.68561387062073 206.48410283029079 147.066401720047 172.65135259926319 156.3185863494873 1754.163821041584 485.56435784697533 291.38473373651505 700.65378838777542 1250.2110569179058 8151.7330814450979 366.15340872108936 353.7643206268549 2779.047905549407 134.99309074878693 201.06689500808716 565.35478328168392 1112.6389851272106 204.97481372952461 814.73280271887779 24311.913191139698 1832.2404054254293 2705.6172907650471 194.46312189102173 598.43949596583843 790.30703175067902 3683.710104778409 1350.4320097118616 139.43181166052818 693.48578187823296 727.89470441639423 612.52424216270447 3257.1828034669161 299.93544566631317 697.75436931848526 281.27573117613792 904.5006640702486 1306.791128501296 2992.8335428237915 3399.435815513134 450.37229497730732 1553.3424466699362 1726.9094092845917 93.368475675582886 207.97942450642586 16281.520465537906 563.99140536785126 155.09106069803238 326.99952445924282 606.61399000883102
leaf_count=96836 2907 1578 1165 1694 9008 4948 5599 10027 27653 564 12747 7549 661 2231 8623 6443 1142 12853 129673 1466 2216 2758 662 936 1085 8755 7256 1366 6255 2455 50593 13461 3395 13576 1882 42295 2963 1176 13100 15268 2522 3591 3251 5959 2203 12427 42817 6712 1257 18741 5904 26016 1836 4406 15949 1531 147011 3995 26432 23839 2603 573 2412 7444 1541 1800 2881 8991 2012 2748 658 6912 1095 2399 8176 6531 2330 294 470 339 700 652 4059 1052 1252 2005 3000 19598 1499 819 8646 564 863 1200 3097 822 2841 53226 5549 6548 400 2529 2287 14451 3843 303 1889 2599 1374 6801 657 1480 586 3481 2857 8962 8251 995 6196 6300 194 745 36544 1268 327 1361 2334
internal_value=0.0264433 -0.0168403 0.0602188 -0.0439749 0.0110529 0.0104597 0.0661282 -0.00434611 0.010233 0.0241691 0.0454606 0.0558971 0.0701436 0.0458027 0.0342797 0.0300391 -0.0582304 -0.0518909 -0.0447137 -0.0257531 -0.0123255 -0.0288055 -0.00879078 -0.0465159 -0.0356246 -0.0101108 0.0551409 0.0615312 0.0303643 0.0647215 -0.0568634 0.0780474 0.0591362 -0.00807246 0.0573309 0.0503797 0.0223074 -0.0220036 -0.0434556 0.0506984 0.0626361 0.0726143 0.0453163 0.0046629 -0.0430194 -0.0212767 -0.0572022 -0.00301367 -0.0249859 0.0430035 -0.0316955 -0.0453779 0.0519349 0.040849 -0.0293305 -0.0167194 0.0810152 0.0711589 0.0738365 0.0816074 0.0518148 -0.0533086 -0.0394042 0.036954 0.0768975 0.0171951 0.0234693 -0.027142 -0.023398 0.0754905 -0.00685018 0.00824382 -0.0386296 0.0368034 0.0549721 -0.0185874 0.0467384 -0.059274 -0.0392336 0.0657405 0.0490363 0.0385664 0.0634932 0.0857271 0.0254249 0.0121412 0.0342166 0.0537044 0.0577218 -0.00444535 0.000473902 0.0694531 0.0432343 0.029497 0.00620982 0.0630146 0.0241801 0.0762701 0.0572895 0.0440165 0.00636941 -0.030001 -0.019615 -0.0267697 0.00999315 -0.0451323 -0.00459969 0.060992 0.0228952 0.0686128 0.0490085 0.0290994 0.0007666 -0.0218463 0.0461023 0.038628 0.0572596 0.0312416 -0.0394524 -0.0162029 -0.0279903 0.0723813 0.0734894 0.0402795 -0.0122899 -0.0214785 -0.00355353
internal_weight=405544 177758 227786 90107.4 87650.5 24169.5 203616 60551.2 41300.7 34315.6 27099.4 24131.7 183205 24434.8 8277.7 20411.5 6985.14 81829.7 59381.3 28329.4 4749.42 27617.2 12965.1 14652 19250.4 5620.54 63183.8 18913.3 5353.63 3587.97 12764.7 120021 16344.2 5521.59 60940.9 41661 12661.4 4944.4 4089.79 7716.96 28999.6 19382.3 14790.9 2838.8 17287.4 11055.5 10764.3 4454.62 13032 10525.1 11755.5 8247.62 11137.5 8732.89 9880.73 7506.51 103677 33477.5 13559.6 15478.7 3899.53 2487.24 2967.67 3903.57 13203.4 1093.9 1887.3 6804.74 4594.02 32516.3 7874.37 3054.44 3593.56 1276.52 11952.1 3715.94 8301.11 6434.68 929.54 15556.5 613.155 430.181 1909.66 70199.2 776.949 4549.34 2557.48 9345.72 8871.65 719.918 3507.9 1155.87 8236.12 1963.04 1714.69 6787.42 3133.29 32353.2 6586.42 4537.86 1397.69 792.903 6523.06 5732.75 1909.61 3823.14 2242.9 8041.29 1340.42 6700.87 3443.68 2183.47 1485.71 1204.44 8035.06 6728.27 3735.43 1026.12 1765.66 1991.86 298.343 19279.9 19071.9 1004.12 440.13 474.066 1307.27
internal_count=1192434 630181 562253 353701 276480 76137 486116 203412 130716 101921 73068 61648 427368 65423 23560 58748 28795 330141 233305 103632 16622 102166 44298 57868 72696 19264 159973 46609 15470 8710 52229 267395 40472 18814 152485 107940 37470 17753 15871 19717 70470 45026 39484 9210 66989 39577 43902 14937 47423 28175 43767 32214 28714 23766 36498 26471 226923 77608 31139 33991 10152 9980 11420 11035 29773 3341 5639 24940 16583 73613 26724 9434 13842 3656 30274 13243 21930 26310 3433 37077 1636 1225 4721 149315 2304 14297 7339 23616 21916 2318 11553 2780 22098 5707 5427 16284 9284 72952 16503 12097 4507 2929 23087 20800 6046 14754 7488 19726 3973 15753 8952 6204 4724 4138 21235 18378 9416 3007 6760 6958 1016 44545 43800 2771 1503 1700 4339
cat_boundaries=0 1 2 3 4 5 6 7 8 9 10 11 12 13 14 15 16 17 18
cat_threshold=25172021 5 4 16 268697602 4 167976962 17 2 52 2 610353152 52 168297728 34219016 671809536 4 8388656
is_linear=0
shrinkage=0.045


Tree=4
num_leaves=128
num_cat=23
split_feature=3 2 2 9 5 7 9 11 0 2 2 9 7 2 7 4 5 11 11 7 3 11 6 11 1 7 11 9 11 2 11 7 0 6 7 7 3 8 7 9 6 7 2 11 11 9 9 11 7 7 9 8 11 6 11 11 11 2 7 9 7 7 2 7 7 6 1 4 5 7 9 11 7 9 2 11 7 11 7 3 4 5 8 11 2 2 2 9 8 2 2 7 7 2 7 9 7 2 2 11 7 8 11 11 7 8 9 4 6 2 2 5 9 2 7 6 2 11 9 2 2 2 3 1 7 3 9
split_gain=267004 61944.5 29856.5 25372.4 21192.3 21500.2 17053.4 16132.8 13264.7 10006.4 18185.5 11322 9785.18 6473.76 5853.24 5502.6 5460.91 6800.46 5495.25 5110 4943.9 5372.05 4919.87 4900.54 4822.53 3830.53 3811.1 3671.12 8178.25 5334.4 6617.27 4028.66 3493.23 5462 3409.76 3281.8 3017.18 6266.6 2810.38 2780.65 2685.59 2635.03 2549.12 6294.14 2924.36 2445.49 2428.25 2678.46 2473.97 2398.89 2395.38 2258.64 2204.17 3910.53 2186 9529.95 2093.81 2092.94 2048.58 2029.88 2273.57 2001.11 1982.57 1907.76 2859.73 1895.05 1877.43 1970.8 1855.7 1913.97 2647.52 1793.16 1784.33 1733.17 1693.57 2732.87 2656.64 1608.37 1553.21 1539.05 1520.75 1470.41 1444.76 2952.58 1443.83 1436.71 1849.8 1476.26 1435 1434.75 1419.44 1403.56 1400.61 1375.02 3932.71 1340.42 1315.32 1306.16 1290.12 1284.66 1273.91 1953.54 1245.55 1329.57 1269.97 2307.64 1167.87 1162.06 2219.42 1150.71 1141.55 1131.5 1085.52 1075.58 1072.19 1056.12 1027.88 1124.98 1111.89 997.799 993.68 1096.07 971.755 960.979 950.199 1318.52 928.323
threshold=0 33692205.000000007 18171500.000000004 96.371450000000024 1 11666793.000000002 71.650700000000015 42.697500000000012 2 33696550.000000007 45233141.500000007 84.521900000000002 1623483.7750000001 45233143.000000007 1493446.5050000001 2020.5000000000002 3 42.735000000000007 55.485350000000004 2922451.7150000003 4 57.419900000000005 5 65.113000000000014 6 3600610.0000000005 42.311750000000011 82.176700000000025 79.850850000000023 33157055.000000004 79.675350000000023 199365.00000000003 7 8 107107.50000000001 397374.50000000006 9 237.00000000000003 13487962.500000002 99.522800000000004 10 871840.00000000012 33621700.000000007 42.145850000000003 42.337450000000011 96.662350000000018 89.603400000000008 42.660000000000004 7519893.7400000012 72122.000000000015 98.782750000000007 1.5000000000000002 42.730150000000002 11 42.741450000000007 42.735000000000007 41.97270000000001 45246050.000000007 4869347.0000000009 86.99730000000001 2922451.7150000003 270015.00000000006 33674000.000000007 943186.25000000012 974918.00000000012 12 13 2015.5000000000002 14 4560890.0000000009 90.183500000000009 42.536100000000012 1963186.0000000002 91.817600000000013 33651150.000000007 42.669150000000009 7170520.5000000009 40.503250000000001 7330889.0000000009 15 2015.5000000000002 16 6.5000000000000009 79.837450000000004 33696350.000000007 15871730.000000002 15896500.000000002 72.292000000000016 4.5000000000000009 33621350.000000007 33141050.000000004 45998.000000000007 1788846.0500000003 45210500.000000007 1515223.5000000002 71.431500000000014 8006095.5000000009 79419500.000000015 39105000.000000007 76.283750000000012 484162309.50000006 206.00000000000003 49.583350000000003 55.485350000000004 25618009.390000004 76.500000000000014 88.96390000000001 2011.5000000000002 17 24456000.000000004 33674000.000000007 18 59.977000000000011 31321215.000000004 1963186.0000000002 19 50210500.000000007 62.146300000000004 89.994500000000016 33141110.500000004 66514125.000000007 80585000.000000015 20 21 511193.95000000007 22 96.526100000000014
decision_type=9 2 2 2 9 2 2 2 9 2 2 2 2 2 2 2 9 2 2 2 9 2 9 2 1 2 2 2 2 2 2 2 9 9 2 2 9 2 2 2 9 2 2 2 2 2 2 2 2 2 2 2 2 9 2 2 2 2 2 2 2 2 2 2 2 9 1 2 9 2 2 2 2 2 2 2 2 2 2 9 2 9 2 2 2 2 2 2 2 2 2 2 2 2 2 2 2 2 2 2 2 2 2 2 2 2 2 2 9 2 2 9 2 2 2 9 2 2 2 2 2 2 9 1 2 9 2
left_child=1 3 7 23 5 6 41 50 15 11 39 82 16 112 45 46 17 42 -18 24 35 -22 116 49 32 66 106 31 29 61 91 51 80 73 111 -8 54 79 -7 93 -19 97 44 -44 -10 126 47 59 -49 -1 56 -25 -9 -54 55 68 78 -36 -28 71 -61 -29 -45 -41 -65 -47 67 -23 69 70 89 -4 -26 120 -71 76 110 -72 -2 -38 -15 119 95 -84 -60 87 -87 -58 -52 -14 92 -31 -63 94 -11 -6 -62 -3 -98 124 -56 -102 -81 104 -104 -106 -17 108 -42 -33 -76 -35 -12 -94 -32 -24 117 118 -20 -51 -34 -122 -101 -105 125 -55 -5
right_child=2 4 8 14 9 38 20 52 12 10 13 -13 36 19 -16 26 18 40 22 -21 21 25 115 27 72 -27 58 28 -30 30 114 109 33 34 57 -37 37 -39 -40 63 107 -43 43 62 -46 65 -48 48 -50 81 88 -53 53 99 100 -57 85 -59 84 60 96 90 -64 64 -66 -67 -68 -69 -70 74 77 -73 -74 -75 75 -77 -78 -79 -80 102 -82 -83 83 -85 -86 86 -88 -89 -90 -91 -92 -93 113 -95 -96 -97 98 -99 -100 122 101 -103 103 123 105 -107 -108 -109 -110 -111 -112 -113 -114 -115 -116 -117 -118 -119 -120 -121 121 -123 -124 -125 -126 -127 -128
leaf_value=-0.043813312476256465 -0.018944110966082846 -0.06334081926924813 0.040652642574745525 -0.073732736278026359 0.034522399408174712 -0.068934883552258033 -0.0016147996025156236 0.088039801691222039 -0.0094407911240395343 -0.048935442651008756 0.08738114755911694 0.080177239062882696 -0.07610766646060356 0.052252130661213751 0.073569333675945051 0.039328189413852237 0.073897734945696625 -0.001190693477176408 -0.026130977914221341 0.067936203611673143 0.086934729821975351 0.043147148546048973 0.03486219833675968 -0.040100302065424427 -0.055562865228721836 0.080853741610109844 -0.070617592957579606 -0.033389769116744308 -0.060750898084552897 0.08899107980344155 -0.070926377843846894 -0.0013639458986604599 0.0072150109011200371 -0.016599825176841349 -0.071237734171993403 0.083867295371106723 -0.056437370071352848 -0.068891454405082167 0.067194081351190982 -0.042711487178645292 -0.050802061934765483 0.075953978277178244 0.043485504193748761 -0.069753014115656445 0.090480274320481516 0.011670344189478966 0.080007873572414748 -0.049557899468739557 0.075468118305968945 -0.0014719053388472716 -0.031049545371033993 0.045612216887663842 -0.048387250221022526 0.014615727400923553 0.08257157487853968 -0.073173245709399995 0.085650141848960415 0.068020461420715245 0.097767665476419352 0.044620318730031326 -0.075921179883407824 0.036694342332863165 0.024679405818590062 0.087687462400992011 -0.020151248747860725 -0.052820143611306283 -0.05248602826544578 -0.059161862717474881 0.082149809691101347 0.083920545023387402 0.086625901821034343 0.089105051546285202 0.065460472794203861 0.027240267145416715 -0.069892742722514736 -0.073051111783485653 0.077185119796854287 -0.03114732155125317 0.049149907604118949 0.079995140095347375 -0.067400062692891977 -0.0083153023887817239 0.089979969393889372 -0.070716622835500051 -0.072928088011254083 0.092861968708314424 -0.075853155811163836 -0.054023125817829663 0.069045317683818899 0.084258664611538386 0.070287267691565597 -0.060378551756838823 0.043246011278084737 -0.062805758430209996 0.040294457482226632 -0.063445903920249208 -0.070796789678184077 0.045220294582472564 0.082710460663135574 -0.049163238559787985 0.079876380331123598 -0.069463607843685368 0.059828303478723359 0.024771896523758261 -0.058505410086794198 0.091002022973703911 -0.023598699163320608 0.068576672345776982 0.053999559132378645 -0.065544801548081816 0.027321947935721055 0.04480381664389569 -0.037933805223846775 -0.072802230653316286 0.091245568796196982 0.064548251503644211 0.035529502089291246 -0.042398031361501443 0.082899870440818368 0.08412817747572561 -0.058079323919430166 0.016511177751916149 0.033184578904693569 0.06944949859160969 0.072295520195471238 0.088421335107455798 0.08925586387664175
leaf_weight=2579.7463141381741 3459.9299401938915 2792.932574570179 5130.254397585988 79.176037833094597 333.8840858489275 3689.7872048318386 961.58835181593895 2399.3884809613228 1197.5417720377445 8539.9144246280193 2444.7645665258169 5165.0272836387157 122.71567076444626 250.30903735756874 3794.9369626194239 2357.4080190658569 27554.624499082565 1611.124945551157 420.62298361957073 2319.7524022161961 2544.6419611871243 1321.0067644715309 3849.3313386142254 1632.8073970228434 3642.3786269724369 1044.7702340334654 2011.0379603952169 1054.8351220041513 17150.367123454809 130.38281358778477 91.994715049862862 573.30420927703381 909.1233322173357 2096.478443339467 228.68716424703598 16778.601497963071 212.34853737056255 769.21870011091232 334.98852065205574 1808.8190231770277 492.63429734110832 348.93845917284489 2195.6271897107363 2804.7777426242828 1175.1430890262127 2047.8861448615789 2898.4986348301172 1275.8010689467192 428.01478840410709 426.70977512001991 443.99170583486557 1006.2170924693346 915.55541941523552 1700.9406192302704 69243.999048262835 941.67347817122936 156.86304202675819 4927.7094550132751 281.20671075582504 1631.7384248524904 711.1605858206749 1865.1675614416599 536.28753733634949 795.11293114721775 1332.4730925559998 1667.4080841988325 1636.9704364091158 535.97059714794159 17400.937547832727 6573.3979884535074 284.31391870975494 2214.331779807806 264.6182819455862 1225.4240401536226 332.31293734908104 342.98642054200172 3760.1025644689798 1348.5885444581509 843.74351972341537 6176.7615254074335 1529.2164939194918 2185.8894500881433 519.35890859365463 417.78419576585293 156.01852115988731 327.16392329335213 220.14530901610851 6627.2961088120937 836.44728580117226 1423.0229361951351 1539.9646230041981 5547.1378048956394 236.33527322113514 9169.47473731637 1132.9119228571653 1848.8001915067434 184.26502272486687 244.03613510727882 278.32382161915302 378.97548407316208 472.95833721756935 283.81722229719162 871.98110385239124 1154.8320332467556 708.46613317728043 296.57187700271606 799.88602854311466 9199.792053565383 2257.6965452134609 42610.103815197945 926.69451528787613 844.11659340560436 148.47819076478481 512.3314441293478 804.55620402097702 7033.248226121068 815.44283476471901 1758.9888409823179 344.55509272217751 779.46835760772228 2554.7529717087746 472.75194869935513 1139.7152242511511 6256.9682325720787 3910.7059134095907 686.40207022428513 666.00873494148254
leaf_count=10081 12328 11907 13796 333 1017 16233 3163 4937 3895 34452 5036 11204 508 652 8560 6508 61468 5248 1507 5368 5314 3514 10572 6460 15023 2278 8720 3983 72887 275 397 1927 2896 7331 974 35499 860 3384 778 7205 1898 772 5892 12256 2417 6444 6306 5129 951 1414 1659 2714 3683 5095 146586 3977 376 11578 582 4272 2998 5328 1574 1652 4949 6840 6450 2108 36990 13843 610 4555 624 3571 1384 1450 8217 4925 2245 13362 6590 7538 1069 1791 662 674 915 27155 2011 3024 3591 23412 636 38960 3200 7854 800 650 606 1494 1022 1244 2104 3234 2802 610 2806 21198 5641 184487 2621 2316 571 2157 1663 16541 2260 6788 799 1703 10370 1454 3161 14354 8858 1420 1370
internal_value=0.025357 -0.0162405 0.0575533 -0.0426523 0.0107229 0.0396806 0.0535748 0.0101375 0.0631589 -0.0062787 -0.0143755 0.0392925 0.0669893 0.0130813 0.0324894 0.0286515 0.0526715 0.0341691 0.0621575 0.00489568 0.0664967 0.0345481 0.0394553 -0.0503365 -0.0028232 0.0052535 -0.00928785 -0.0534702 -0.0409205 -0.0120563 -0.0390075 -0.0613942 0.00874896 0.0166977 0.0397428 0.0791892 0.0745473 0.0564757 -0.0576047 -0.043134 0.0535261 -0.0411612 0.00102322 -0.0157004 0.0400481 -0.00246103 0.043087 0.0340592 -0.0181502 -0.0111088 -0.0240808 -0.00741951 0.0498394 0.039343 0.0774073 0.0679531 -0.0305097 0.0618443 -0.0514242 0.0428231 0.0102625 0.0219601 -0.0545953 -0.00873561 0.0201498 -0.0173835 -0.0173527 0.0136182 0.0720403 0.060307 0.0293164 0.0552606 -0.047366 -0.019457 0.0686108 0.0498427 0.0582408 -0.0106412 -0.00559415 0.0626627 -0.0502871 0.0137638 -0.0283941 0.0183404 0.036857 -0.0451355 0.0249993 -0.0507936 0.0343375 0.0715272 0.0360159 -0.0569483 0.0158246 -0.0503203 -0.0384846 -0.0484597 -0.0375014 -0.0546174 0.0215633 0.049617 0.0819369 0.0238687 0.0642929 0.0539207 0.0200897 -0.014388 0.0233859 0.0608531 0.0352393 -0.0646927 0.00166229 0.0011224 0.0802061 -0.0361687 0.0746052 0.0540895 -0.00836907 -0.0225838 0.022965 0.0534027 -0.0340427 -0.0464318 0.0125302 0.0624883 0.0586388 0.0362677 0.0719383
internal_weight=403696 176139 227557 88982.7 87156.4 32234.2 28209.5 24047.3 203510 54922.1 46637.3 8284.85 183152 23858.6 8255.42 20357.9 63247.4 21470.6 41776.8 21265.3 24823.5 7083.36 14222.2 80727.3 18945.6 4538.72 5605.56 74755.5 28933.1 11782.7 6574.07 45822.4 15038.6 13259 8096.99 17740.2 119905 16447.1 4024.78 22778.7 13561.2 3385.91 7909.38 5536.69 2372.68 4460.48 14752.4 11853.9 1703.82 5971.81 12915.6 2639.02 11131.7 8732.29 103458 33456.7 11635.1 5156.4 2448.26 10150.1 2805.49 5208.63 3341.07 3936.41 2127.59 3715.29 3493.95 1856.98 32515.1 15114.1 3178.64 7344.59 3907 5162.05 11935.5 5362.1 5019.11 1632.9 4303.67 15677.9 1779.53 3392.07 3119.83 937.143 437.225 7331.47 547.309 6784.16 1280.44 1545.74 4153.8 5677.52 2613.83 18842.3 9672.83 2182.68 1173.75 3036.97 462.589 7816.74 70000.8 756.776 15465.6 9288.82 1877.02 1005.04 3157.29 11950.1 2750.33 43183.4 1259.01 2940.6 2593.24 748.667 896.551 10882.6 3339.61 2524.17 765.178 1206.18 3936.63 3027.5 1518.69 7411.8 6298.05 2387.34 745.185
internal_count=1192340 630573 561767 354200 276373 88666 71655 76011 485756 187707 164772 22935 427065 74354 23547 58691 159954 60019 99935 68747 58326 19664 38467 330653 63379 14350 19278 309917 114329 41442 25747 195588 47732 40490 22199 38662 267111 40710 17011 90418 33985 13329 26034 19722 6312 14987 39413 33107 6080 20736 47363 9174 28648 23711 226401 77549 43693 12552 9964 27027 8676 15695 13830 13806 6601 13284 12072 5622 73572 36582 9067 18351 15647 18291 27515 13672 12222 5535 14573 37326 7242 10655 11731 2860 1244 29120 1589 27531 3670 3532 11712 23687 8121 76612 37652 8871 4404 12557 1406 20028 148852 2266 36466 23104 5516 3412 9314 28737 7539 186414 4005 9647 5607 2793 2060 27113 11354 9094 2306 3117 14720 11824 4655 17588 15373 6515 1703
cat_boundaries=0 1 2 3 4 5 7 8 9 10 11 13 14 15 16 17 18 19 20 21 22 23 24 25
cat_threshold=25434165 134 5 18 4 536871044 2 1 273 403775488 235085824 155324928 2 1073778720 200 1 20 524288 8 537919488 72 219190848 34078720 4 302646016
is_linear=0
shrinkage=0.045


Tree=5
num_leaves=128
num_cat=21
split_feature=3 2 2 9 6 9 10 10 11 11 6 7 2 10 7 2 10 11 5 10 9 8 9 10 9 11 11 8 7 11 7 9 10 10 3 7 8 9 2 11 7 1 11 11 2 7 3 3 5 9 11 11 6 2 2 6 11 10 7 3 11 5 11 11 11 1 6 9 2 9 10 11 10 7 10 2 11 7 5 7 7 5 10 9 3 2 11 11 7 5 11 2 11 11 11 7 9 7 9 7 3 9 8 7 10 8 11 11 2 7 2 9 11 7 8 7 9 7 10 9 7 8 8 5 2 10 7
split_gain=243664 57337 27239.7 23685.1 19445.8 28767.7 25715.6 18875.9 14951.2 13623.6 9754.11 11221.3 8419.45 7293.65 5354.01 5336.16 5185.13 8684.93 5044.55 4547.88 4501.52 4465.9 4278.37 4076 3617.64 3866.97 3153.87 2895.57 3393.22 2804.07 2762.66 2814.61 3451.53 3988.33 2716.87 3818.31 2708.72 3298.58 3612.3 5469.47 2686.84 2997.51 2492.57 2378.27 2785.6 2531.49 2317.92 2282.68 2179.17 2177.24 2017.52 2004.34 3588.93 1912.12 4478.54 2001.37 1932.05 1900.23 2613.43 1842.27 1835.16 2062.33 1783.74 2252.56 5972.9 2707.18 1731.05 1718.04 1696.62 1671.79 1670.8 2022.5 1865.7 1605.58 1432.51 1424.33 1475.38 1476.52 1417.66 1402.08 1371.41 1365.2 1349.69 1327.65 1290.52 1263.73 1255.9 1247.38 1233.31 1304.01 2465 2026.2 1898.82 1169.39 1165.99 1163.15 1144.1 1122.93 1100.73 1069.73 1344.46 1053.42 1044.3 1044.23 1038.8 1032.26 1024.59 1022.63 1015.36 1218.13 1055.97 1004.34 977.844 972.008 1909.37 1009.83 959.268 954.44 1092.67 953.556 932.237 915.359 2080.32 915.134 914.913 999.006 911.063
threshold=0 33692205.000000007 18171500.000000004 96.371450000000024 1 81.070900000000009 56.568650000000005 4.7286500000000009 42.697500000000012 66.007700000000014 2 5681057.0000000009 33698050.000000007 56.070200000000007 1415794.5000000002 80405000.000000015 1.1760000000000002 79.837450000000004 3 20.838600000000003 80.886400000000023 237.00000000000003 92.980700000000013 49.969800000000006 96.176800000000014 64.318800000000024 55.857300000000002 1.5000000000000002 347785.87500000006 79.294000000000025 428181.71000000002 76.206350000000015 37.898950000000006 38.596050000000005 4 1623483.7750000001 100.50000000000001 90.708050000000014 45441050.000000007 42.603650000000009 7170520.5000000009 5 42.417450000000009 79.675350000000023 33190500.000000004 300002.30000000005 6 7 8 96.662350000000018 42.221900000000005 42.730150000000002 9 45233120.500000007 77050000.000000015 10 79.994000000000014 39.364900000000006 1134301.0450000002 11 71.849850000000018 12 47.530500000000011 42.741450000000007 42.735000000000007 13 14 92.980700000000013 30205000.000000004 57.588850000000001 38.019600000000004 42.512650000000001 58.544950000000007 4112207.5000000005 20.838600000000003 33674000.000000007 42.124100000000006 1380006.5000000002 15 33879.500000000007 1493446.5050000001 16 19.705650000000002 91.652250000000024 17 33696350.000000007 79.43695000000001 73.029300000000021 484162309.50000006 18 42.669150000000009 32320600.000000004 42.145850000000003 76.512700000000009 76.283750000000012 4461389.0000000009 99.208500000000015 1788846.0500000003 99.699700000000021 150072.00000000003 19 99.999900000000011 4.5000000000000009 519855.00000000006 59.443500000000007 9.5000000000000018 42.56600000000001 79.110600000000019 14212060.000000002 4560890.0000000009 3221320.0000000005 90.605250000000026 41.574650000000005 484162309.50000006 206.00000000000003 2529150.0000000005 99.522800000000004 3501000.0000000005 56.83015000000001 94.891200000000012 1716374.0000000002 61.500000000000007 76.500000000000014 20 18111500.000000004 31.835050000000006 587390.50000000012
decision_type=9 2 2 2 9 2 2 2 2 2 9 2 2 2 2 2 2 2 9 2 2 2 2 2 2 2 2 2 2 2 2 2 2 2 9 2 2 2 2 2 2 1 2 2 2 2 9 9 9 2 2 2 9 2 2 9 2 2 2 9 2 9 2 2 2 1 9 2 2 2 2 2 2 2 2 2 2 2 9 2 2 9 2 2 9 2 2 2 2 9 2 2 2 2 2 2 2 2 2 2 9 2 2 2 2 2 2 2 2 2 2 2 2 2 2 2 2 2 2 2 2 2 2 9 2 2 2
left_child=1 3 8 16 5 23 7 12 48 -7 26 13 -6 18 49 24 -1 20 30 107 29 62 43 27 25 80 113 28 81 93 79 59 42 50 35 101 37 38 39 57 41 -26 75 44 45 82 -39 -41 70 -5 -34 -10 -53 85 55 -55 73 111 -59 -32 61 -46 63 64 69 -66 -51 78 -64 -13 71 95 98 -57 97 76 77 -33 -50 -12 -9 -3 -22 -56 -62 -27 -31 -49 89 90 91 -71 -91 102 124 112 -93 -47 -72 -81 -101 105 104 -35 -18 -28 -44 -11 110 -110 -97 123 -2 115 -115 -4 -48 -69 -119 -111 -29 -70 -123 -20 126 -126 -54
right_child=2 4 10 14 6 9 -8 15 51 19 11 21 -14 -15 -16 -17 17 -19 36 -21 22 -23 -24 -25 40 53 34 120 -30 86 31 32 33 103 -36 -37 -38 46 -40 47 -42 -43 106 -45 60 74 116 87 67 66 -52 52 94 54 83 56 -58 58 -60 -61 84 -63 68 -65 65 -67 -68 117 121 88 72 -73 -74 -75 -76 -77 -78 -79 -80 99 -82 -83 -84 -85 -86 -87 -88 -89 -90 92 -92 96 -94 -95 -96 108 -98 -99 -100 100 -102 -103 -104 -105 -106 -107 -108 -109 109 119 -112 -113 -114 114 -116 -117 -118 118 -120 -121 -122 122 -124 -125 125 -127 -128
leaf_value=-0.067595946913831501 -0.013430464501784756 0.035232007498763991 0.068895835269288136 0.068428452093406936 0.083546106107660306 -0.0099700998120956091 0.080506343592511825 -0.025963648506476408 0.084412599723887469 0.039174167348641799 0.010865011143285672 -0.069554846110079338 -0.062773290483257527 0.077369182763639993 0.070536515765651189 0.038483733137632051 -0.012458024363228886 -0.058569278820695722 0.0058259630200317965 0.082739137604610422 -0.063211275508355425 -0.067200926468644298 -0.04946039228902769 -0.0581855461878516 0.037731022016845195 0.019960671082266859 -0.0030975244995287772 -0.043766013368248674 0.062222953065235398 0.07081034145371029 -0.057586587555935341 0.074725896781814627 0.02781046395308975 -0.074536715184828253 0.067132654002834802 0.063526727627706794 -0.072502524763450094 -0.021235456030950221 0.062858836169131627 -0.062157725508010075 0.070563480397273101 -0.041440659839669984 0.087389073733486256 0.074392068923707894 0.072312919699610081 0.030007269823196799 0.079799346298026014 0.062839546986427713 -0.032963489915428593 0.011226598842408729 -0.064923978105576569 -0.047122037773037646 0.040038564001577251 -0.055566246036374008 -0.061978815458113679 -0.028475219523522659 0.042637569786702238 0.084231025619309979 -0.07268196504411506 0.039648976484749111 -0.061271042350724003 -0.043295173987357195 -0.056941294173070554 0.084207027459476821 -0.071185333355120936 0.085870973358112182 -0.050735036238090829 0.088238429336914115 0.05870676142154211 -0.055160580125021209 -0.066158761264188473 0.086863919270172535 0.068083736699367708 0.07273556727629274 0.069284073645167671 0.046638388562083674 -0.072385419343325264 -0.029892261859772905 0.058461983801179285 0.060454057764609909 0.069785041601000436 -0.031430599413255676 0.004856709070988138 0.033272584977274408 0.050694414467218243 -0.057983417141759176 -0.061312547711680619 -0.015425840117110769 -0.07338262228111686 0.044618476233694339 -0.071075000381710385 0.075387413402845063 0.08287149528283197 -0.064694390470658752 0.012544879890824557 -0.05899278162991238 -0.036322749832045455 -0.055208311330816273 0.097280402172549629 0.063027189509528111 -0.0057958278352273915 0.033137375289094148 -0.062099988114893492 0.032974417669838767 -0.070143536630598954 -0.07120245650384506 0.040373985423826107 -0.032909666734115967 0.10099029286155466 -0.061091943663200941 0.070553071608790263 -0.08704974327102756 -0.0612197825303578 0.07312183084176721 -0.067821957549527787 0.079693185363355179 0.054382049749292893 -0.071478167622044772 0.091901587462517531 0.09977613320025272 0.06485309327857583 -0.072940496207380523 0.086343254406099593 0.059903450653453046 -0.074745858355711028 0.052085714150953893 0.076072618668313177
leaf_weight=21636.296693786979 1581.8693273067474 857.98085464537144 27845.575204834342 735.1322088688612 4495.7848594784737 4435.0642342716455 5793.1488651037216 483.52715677022934 2387.1560979485512 809.89398345351219 2981.1122118532658 175.84133918583393 967.77710799872875 8711.2226075828075 3805.9211718440056 2060.4067533165216 3410.5944387167692 29997.733207657933 735.00961428880692 19547.530956268311 847.33857457339764 489.37573935091496 3711.0481435209513 4157.9269930869341 1428.5675113797188 432.96309150755405 1235.3772193044424 2924.5122493952513 2044.8130854964256 594.30735203623772 1949.6144923269749 455.29421924054623 591.05647024512291 195.36228883266449 10060.890258997679 2977.1247055232525 388.05480176210403 612.60389672219753 5699.1799973398447 1779.4172703623772 869.78019818663597 3006.1537990868092 1651.3684536516666 946.44421197474003 615.68983054161072 1853.5486615300179 6832.0540833771229 591.05582499504089 1630.7623641639948 2048.180454865098 2420.998782813549 896.93993009626865 2421.8394703418016 1216.2632216364145 6464.1062518805265 2434.0005044341087 1999.8717051446438 331.21260187029839 612.27704448997974 488.85393962264061 2407.613306581974 615.46665671467781 309.18817262351513 18729.433244973421 929.91016499698162 292.04110878705978 1635.5166729688644 680.89874617755413 4577.9426562935114 295.15389557182789 3849.8983961641788 351.42196953296661 234.33403831720352 364.99392865598202 1835.7432075887918 1055.9501941055059 665.63466034829617 682.96259588003159 425.11041243374348 4575.1305343657732 810.97576498985291 2194.9907879084349 1941.5263085961342 310.56070899963379 223.23086796700954 15537.187560319901 192.99903950095177 1364.0003157109022 121.17859992384911 3221.8597593009472 331.45690587162971 2898.9917686730623 14249.091285407543 5390.5311278402805 1544.7200483828783 160.7090061455965 198.35694512724876 376.79808436334133 85.292059361934662 980.20543247461319 1372.844070494175 809.89622694253922 2089.6579320430756 2877.6721427589655 775.98457296192646 709.48838147521019 2174.8383764028549 784.65020552277565 133.57450473308563 759.33547586202621 615.10211560130119 104.87939268350601 1918.6426694393158 617.51507399976254 284.21902874112129 47395.072932079434 5370.3000552803278 200.46331687271595 141.33595404028893 82.746998846530914 169.26795008778572 351.7277989089489 314.51076294481754 5286.3057967871428 217.26537407934666 298.5910422205925 3437.6498848050833
leaf_count=97220 5581 2463 62768 1693 9314 15379 12351 1766 4931 2227 9105 703 4187 18942 8579 5633 12137 129722 2207 41026 3568 2199 15274 17727 3866 1295 4071 11578 4953 1392 8010 1042 1701 747 22978 6829 1676 2110 13559 7697 2043 11948 3403 2147 1416 5402 14581 1400 6125 6433 10602 3657 6451 5014 27769 9092 5477 692 2619 1291 10400 2430 1296 38848 3999 602 6799 1534 10938 1176 16714 821 548 809 4277 2766 2841 2501 1087 10956 1890 8362 6475 864 585 66391 826 4600 465 8247 1427 6377 29809 23546 4730 673 683 1520 177 2311 4545 2286 9030 8095 3340 2948 5766 2934 278 3157 1468 420 8054 1358 1273 100395 13063 837 291 172 402 1476 650 12756 845 741 7516
internal_value=0.0243907 -0.0156282 0.0551136 -0.0412793 0.0103423 0.0344942 -0.00848128 -0.0205048 0.00983861 0.0617361 0.0604826 0.0514832 0.0576281 0.0391198 0.0314151 -0.0319129 -0.0488036 -0.0417722 0.0330424 0.0767782 -0.0236658 0.0680363 -0.00737646 -0.0218986 -0.036015 -0.042062 0.071337 -0.0034799 0.0173626 -0.0437748 0.0181734 0.00613475 0.0145935 -0.00992844 0.0530436 0.0281477 0.0455937 0.0471724 0.0338715 0.0185807 -0.00175341 -0.0159369 0.0369113 0.00601376 -2.49158e-05 0.0171954 0.0643014 -0.0254722 -0.0232863 -0.00228002 -0.0467267 0.0478338 0.0379304 -0.0454866 -0.0325208 -0.00426089 0.00883972 0.0418512 -0.0175976 -0.0381668 -0.0305905 0.014755 0.0694445 0.0726537 0.063127 -0.0336496 -0.0163909 0.00974362 0.0454951 0.0686294 -0.0336666 -0.0176509 -0.0552708 -0.0152772 0.039843 0.00513054 -0.019167 0.0119542 -0.0139346 0.0366696 0.0340207 -0.0126839 -0.0158243 -0.0576124 -0.0518108 -0.0558703 0.0384219 0.00819357 0.0697693 0.0705878 0.0459307 0.0574979 0.0757738 -0.0493217 0.0475619 -0.0246442 0.0682334 0.0156108 -0.0626164 0.0477731 0.0231169 -0.00998493 -0.0361183 0.0261396 -0.0231501 -0.0279423 0.0606654 0.00370284 0.00529458 -0.0252582 0.0437177 0.0510068 -0.039624 0.0751406 0.0286975 0.0756972 0.0685569 0.057438 -0.0039197 -0.0452843 -0.0378232 0.0515346 0.00225247 0.0534115 0.056121 -0.00133246 0.0611791
internal_weight=401303 174290 227013 87687.3 86602.7 37926.6 48676.1 42882.9 24055.7 25577.1 202958 111023 5463.56 63536.5 8224.75 37419.4 79462.6 57826.3 54825.2 21142.1 27828.5 47486.1 15374.4 12349.5 35359 30054.4 91935.2 8191.56 5097.78 12454.1 25118.9 15209.6 12771.1 6085.09 15792.8 5731.89 29706.4 29318.3 16503.3 10804.2 5304.5 4434.72 6686.05 11663.4 10717 6854.95 12815 3734.47 12851.5 4418.83 3012.06 11204.2 8817.01 28759.9 12789.8 6015.13 4798.87 7069.68 943.49 2438.47 3862 1231.16 46996.7 41443.3 22713.9 1221.95 3683.7 3078.57 5553.37 21491.9 9772.93 5603.4 4169.52 2798.99 4066.09 2859.84 1803.89 1138.26 2055.87 9909.29 1294.5 3052.97 2788.86 6774.67 2630.84 15970.2 787.306 1955.06 21316.1 21194.9 3723.96 3392.5 17471 11666.8 7920.07 5251.98 3097.35 2230.35 3935.19 6928.18 2353.05 2754.76 6276.24 3073.03 4186.58 1944.87 3826.21 1594.54 1751.47 975.657 775.811 6126.19 3500.51 76142.4 901.734 75240.6 12202.4 1022.7 341.799 842.082 3093.78 5244.18 666.239 6021.32 6375.35 515.856 5859.49
internal_count=1193164 630971 562193 354211 276760 107051 169709 157358 76388 61566 485805 280899 13501 172004 23504 143857 330707 233487 153062 46187 103765 108895 53494 45485 138224 120367 204906 27758 15778 50271 75682 48765 39464 21145 39112 16134 77380 75704 45950 32391 17857 15814 18319 38220 36073 21242 29754 13697 47517 14925 12303 28871 23940 116711 49025 20392 15378 18694 3311 9301 14831 3846 106696 92336 53488 4601 13232 9874 14360 48887 37643 20204 17439 9901 11199 9150 6384 3543 7212 26917 3656 10825 10043 28633 10985 67686 2218 6000 48184 47719 9663 8236 38056 48053 20283 19383 7060 6922 16891 17812 6856 9305 24507 8842 15477 7019 9169 5161 5748 3607 2141 15383 13635 165794 2631 163163 27644 2662 1128 3329 11980 13064 2126 14963 15553 1586 13967
cat_boundaries=0 1 2 4 5 6 7 8 9 10 11 12 13 14 15 16 17 18 19 20 21 22
cat_threshold=25172021 8 2721620066 1 22 33955840 1 268960768 301989888 30 1073778720 73728 33554432 8 2 200 96 144 8388608 6 541606464 96
is_linear=0
shrinkage=0.045


Tree=6
num_leaves=128
num_cat=23
split_feature=3 2 2 9 5 7 9 11 10 2 0 7 2 10 2 10 11 7 4 5 11 11 1 7 6 9 9 6 10 11 3 11 2 7 9 10 11 3 3 11 7 6 7 10 11 11 2 7 5 9 9 7 2 11 6 11 11 7 11 5 4 11 10 9 9 6 2 2 7 7 5 7 9 11 11 5 10 10 2 10 2 4 7 5 2 11 11 2 2 5 10 11 2 9 2 11 2 3 2 11 2 7 11 7 11 2 7 7 11 9 7 2 9 5 11 9 11 2 11 6 3 9 9 2 9 2 10
split_gain=223946 53145.2 24692.5 22052.4 18160.2 18334.2 14278.3 13332.2 12457.1 14630.4 11502.8 8475.6 6572.02 6414.58 5423.2 4955.76 8265.43 4881.7 4831.64 4698.73 5748 4702.62 4525.42 4185.07 6114.15 4145.21 3960.77 3916.03 3561.18 3330.58 2942.58 4351.04 2933.42 2799.27 2790.86 2785.96 2737.73 2601.35 2585.71 2508.11 2469.77 2387.46 2370.97 2268.92 3304.71 2170.21 2554.5 2227.23 2070.53 2054.99 2016.55 1978.84 1969.01 1871.87 3277.1 1862.04 8112.46 1759.42 1741.9 1897.05 1696.59 1673.04 2002.5 1637.34 1600.13 1582 1523.37 2065.27 1493.54 1603.62 1450.71 1846.46 2291.99 1441.07 1440.32 2074.23 1396.02 1324.08 1317.4 1282.35 1278.97 1268.83 1537.2 1266.91 1615.46 1471.38 1268.86 1255.3 1241.28 1218.94 1213.94 1202.14 1181.86 1174.23 1170.81 2425.6 1937.4 1148.14 1145.93 1129.96 1107.09 1099.36 1096.53 1093.76 1069.56 1066.13 1050.67 1618.86 1050.35 1038.68 1020.59 1013.78 971.076 961.034 953.671 951.05 946.552 943.42 983.776 929.067 926.461 896.675 886.059 884.387 880.398 841.249 918.565
threshold=0 33692205.000000007 18171500.000000004 96.371450000000024 1 11666793.000000002 71.650700000000015 42.697500000000012 4.7286500000000009 45233141.500000007 2 1623483.7750000001 33698050.000000007 16.273150000000005 45233143.000000007 1.1760000000000002 79.837450000000004 1493446.5050000001 2020.5000000000002 3 42.735000000000007 55.485350000000004 4 88206.000000000015 5 80.886400000000023 92.980700000000013 6 36.666650000000011 42.311750000000011 7 62.146300000000004 33141125.500000004 1963186.0000000002 91.652250000000024 37.898950000000006 79.294000000000025 8 9 42.417450000000009 15333930.230000002 10 922323.50000000012 38.095250000000007 42.660000000000004 79.675350000000023 33190500.000000004 300002.30000000005 11 83.295400000000015 96.662350000000018 115351.00000000001 45246050.000000007 42.730150000000002 12 42.741450000000007 42.735000000000007 4869347.0000000009 71.849850000000018 13 2011.5000000000002 41.797450000000005 36.913950000000007 58.47610000000001 85.608450000000019 14 71311225.000000015 80585000.000000015 2680635.0000000005 5681057.0000000009 15 4560890.0000000009 90.183500000000009 40.503250000000001 79.837450000000004 16 59.148550000000007 20.838600000000003 33696350.000000007 19.705650000000002 33696350.000000007 2015.5000000000002 45998.000000000007 17 33610500.000000007 41.97270000000001 41.324550000000009 33621350.000000007 15520850.000000002 18 55.086200000000012 79.43695000000001 79419500.000000015 89.127900000000011 33651150.000000007 42.669150000000009 33652050.000000007 19 63505000.000000007 76.283750000000012 30205000.000000004 88206.000000000015 71.662900000000022 4987605.0000000009 42.311750000000011 33696350.000000007 484162309.50000006 576300000.00000012 42.248950000000001 99.999900000000011 1788846.0500000003 60125000.000000007 89.603400000000008 20 41.712450000000011 88.96390000000001 42.543150000000004 50210500.000000007 62.146300000000004 21 22 89.994500000000016 74.565500000000014 33652150.000000007 96.526100000000014 18111500.000000004 31.835050000000006
decision_type=9 2 2 2 9 2 2 2 2 2 9 2 2 2 2 2 2 2 2 9 2 2 1 2 9 2 2 9 2 2 9 2 2 2 2 2 2 9 9 2 2 9 2 2 2 2 2 2 9 2 2 2 2 2 9 2 2 2 2 9 2 2 2 2 2 9 2 2 2 2 9 2 2 2 2 9 2 2 2 2 2 2 2 9 2 2 2 2 2 9 2 2 2 2 2 2 2 9 2 2 2 2 2 2 2 2 2 2 2 2 2 2 2 9 2 2 2 2 2 9 9 2 2 2 2 2 2
left_child=1 3 7 15 5 6 42 48 12 30 18 19 -6 60 -11 -1 25 50 43 20 28 -21 23 111 52 36 45 117 -12 115 35 109 -30 -24 66 74 81 51 55 90 -7 -22 92 83 68 46 47 79 61 -40 124 -15 -25 -9 -55 56 63 -31 59 -48 -8 103 88 -13 -50 -52 -26 -68 108 112 71 72 87 -74 75 102 -64 110 -33 -27 -59 -17 -83 84 86 -85 -4 -65 93 -71 114 -38 -3 -63 -73 96 -96 -60 -39 125 113 -43 -10 -2 -91 -41 -57 -108 -45 -32 -49 -16 -70 -51 -34 -20 -66 118 121 -29 -101 -23 -104 -102 -5 -56 -127
right_child=2 4 10 17 8 40 13 53 9 14 11 38 -14 37 22 16 -18 -19 29 21 41 27 33 24 34 26 -28 119 32 57 31 78 39 -35 -36 -37 91 98 49 105 -42 101 -44 44 -46 -47 58 77 64 100 65 -53 -54 54 99 106 -58 80 97 -61 -62 62 76 70 116 -67 67 -69 69 89 -72 94 73 -75 -76 -77 -78 -79 -80 -81 -82 82 -84 85 -86 -87 -88 -89 -90 104 -92 -93 -94 -95 95 -97 -98 -99 -100 120 123 -103 122 -105 -106 -107 107 -109 -110 -111 -112 -113 -114 -115 -116 -117 -118 -119 -120 -121 -122 -123 -124 -125 -126 126 -128
leaf_value=-0.066118973600420308 -0.016624567545316618 -0.060303179678407981 0.040381956485686071 -0.07360502096847106 0.080148278262301462 -0.065763753791871132 0.054286571602770735 0.081222223386733336 -0.010982677980642851 0.075000429358028906 0.062587153676431598 -0.075519222070024858 -0.060908255049252229 0.0020633975618480974 0.011220645673153779 -0.055937118710913378 -0.05714520147198305 0.067378510728977423 0.035015588349602056 0.067998019789534458 -0.0034447921267866666 -0.023575921703347203 -0.053421502363015516 -0.068767068981885407 0.028505460019911215 -0.061331679786509226 -0.047927950213760007 0.030844083621676056 0.066602154697689306 -0.067987339516411102 0.071679690510834726 0.022486651867379148 0.018408173584557055 0.0456376205363489 0.041148016734856942 -0.050126843304875858 0.068115712165224676 -0.043329509542660578 0.072965759877681197 -0.066885309624574105 0.064852858670416999 0.083033121241861713 0.072238852268161124 0.0088900531646478962 -0.059783825611808089 0.070994553836074642 0.068606568895729692 0.028224270372922008 -0.039851750691584656 0.074072007827440875 0.010412113354692557 0.073331414675971568 0.067706520631962266 -0.045827826548572245 0.058595415592646152 0.076215179056393426 -0.069386123188007853 0.090070486019004178 -0.059572835868063882 -0.041593185273936149 -0.052880862511258279 -0.03679139692182945 -0.057977758805073977 -0.074239889666674386 0.017002340597443457 -0.049085440026292372 -0.050327163347029406 0.037878146167946256 -0.062411146076420135 -0.056375893297492922 0.076102761242636388 0.077494540697994024 0.080668832007560004 -0.030641058154921623 -0.044079252141497022 -0.013260593629718169 0.083036485012756123 0.066218854546253716 -0.054083225713919554 0.0054152761739557258 -0.071292266495878803 -0.05724680384760495 0.012862239386415347 0.034736717154041308 0.047613411702611561 0.077705496789747641 -0.070952319988798848 0.077794784802070333 -0.072812028631835363 -0.078087269289245045 0.074774608014996705 -0.061531554352160026 0.043514141701213621 0.077063222515882074 -0.050571774386959659 -0.069286053014955329 0.064443584782011745 0.047232727488401072 0.049674391867090412 -0.050442908072710402 0.063007007921968727 0.048909878996842772 -0.065491717874800834 0.054861832710399967 0.083141084219927219 0.085108343911877785 -0.05017015542755305 0.082251621049752421 0.082906965115021242 -0.070685583811541733 -0.053334385940477028 -0.037933044141024462 0.088721737742609608 -0.044994999012817352 -0.034889958526619476 -0.021512763802570316 0.093401888656087756 0.034567578984713611 -0.03959052236873449 0.05877409673713653 0.030349811650883667 0.075382460043296268 0.079901268616742668 0.034414155017051418 0.082800192786925464 -0.071402017210351248 0.049851654116287766
leaf_weight=21075.109946638346 2121.9420428574085 2694.3610361367464 351.16087971627712 81.947012543678284 4537.765650331974 3547.4624416977167 399.11297385394573 2352.8382711410522 423.97848746180534 2506.3900466114283 1504.7710781991482 163.7563764154911 784.49755641818047 819.4386056214571 1192.8692406117916 8930.0367085933685 29466.421353980899 3808.0214551538229 2344.7790767997503 27469.887068718672 1571.3963029235601 400.11405877768993 3479.668387055397 222.66643880307674 1002.9282444566488 830.92165043950081 3670.0078836679459 3786.8940218687057 790.79335637390614 1963.2527358829975 740.53063169121742 467.97594346106052 1271.1609029769897 692.66411755979061 2192.6722191870213 2643.14373485744 618.62216910719872 591.08148531615734 6081.1318269819021 2298.3264934569597 319.55291125178337 2388.5173606723547 349.49827545881271 548.7236519753933 982.91829805076122 947.0217057466507 628.5272045135498 1829.2258743792772 910.33275873959064 175.47038902342319 2043.2408097088337 21199.001921236515 5551.7562776356936 885.02243974804878 5800.9908285886049 68353.063720330596 916.06867396831512 277.64421391487122 2363.8634104132652 618.19028539955616 1194.2379280626774 274.96681970357895 5682.5762745141983 119.3664236664772 1759.0380667895079 1612.750809237361 2941.3914697766304 657.74449855089188 699.77201536297798 204.60228663682938 17263.353457838297 6568.3212638646364 285.75718501210213 1339.9200348258018 890.83459571003914 1953.1418382674456 145.8124783039093 1822.3392313420773 16432.262215554714 1952.424145847559 154.99389073252678 1189.2698132544756 1354.667499139905 2531.3242919445038 2173.017073571682 4452.046572715044 505.96093167364597 1397.5709348022938 264.72796607017517 93.762940153479576 389.98350059986115 189.09868212044239 241.99416844546795 551.02279837429523 317.36810579895973 329.41722844541073 4526.2698039412498 218.29465387761593 491.2325302362442 371.80619156360626 3294.9224840700626 9581.3080229014158 90.374128773808479 544.66014865040779 748.03634491562843 97.411855727434158 338.95040918886662 416.8670916557312 1327.4291717112064 120.68997564911842 374.26661020517349 2953.3606510609388 98.169027000665665 522.61025327444077 1461.397881731391 811.20013634860516 403.76594310998917 829.87011454999447 1722.2513056844473 7086.6514718830585 1158.1205562800169 345.55514803528786 1395.9736593961716 6535.5262742340565 658.59096944332123 218.53297057747841 300.46469302475452
leaf_count=96940 7610 11858 935 345 9489 16279 987 4896 1487 5450 3509 675 3471 2672 3857 38693 129911 8616 6433 61580 5120 1456 14685 979 2858 3559 15322 10390 1817 8810 1692 1379 3740 1744 5823 11096 1440 2371 13360 10451 734 4975 772 1650 4336 2154 1446 5322 3569 379 6412 46308 12802 3659 13837 146078 4019 571 10409 2465 5005 1076 24580 500 5432 6803 12044 1789 2972 897 36966 13964 611 4969 3622 6955 302 4242 71021 6490 672 5010 4295 6740 5502 9521 2068 2994 1129 384 846 828 645 1253 1270 1447 10398 573 1245 1488 7712 23868 360 1395 1551 201 1440 865 2751 492 1529 11503 202 2146 5497 2830 843 2268 6723 16708 3210 797 2955 17734 1365 853 745
internal_value=0.0235248 -0.0151662 0.0529758 -0.0400991 0.00992806 0.0368609 0.0495657 0.00956886 -0.00599832 -0.0131636 0.0580759 0.0616583 0.0593567 0.0612919 0.0124532 -0.0474738 -0.0405803 0.0300813 0.0258761 0.0483157 0.0311015 0.0571226 0.00494791 0.0154126 0.028345 -0.0228546 -0.00718889 0.0360819 0.000382227 -0.00988243 -0.0369835 -0.0469087 -0.0144542 -0.0369763 -0.000632604 -0.0130716 -0.0423131 0.0673153 0.0687299 -0.0260699 -0.0549702 0.0488508 -0.0385595 0.0393834 0.0136023 0.00571674 -9.44226e-05 0.0164413 -0.0219875 0.0521073 -0.00222337 0.070647 0.062336 0.0455966 0.0360005 0.0714158 0.0626687 -0.0498848 -0.0295011 0.0141802 -0.0260369 -0.0322726 -0.0439773 0.0664126 0.0101656 -0.0159396 -0.0205405 -0.0342076 0.0329902 0.00423382 0.0671356 0.0566458 0.0260475 -0.0110753 0.00750166 0.0193951 -0.0544499 0.0378408 -0.051963 -0.0145109 0.0322618 -0.0479501 -0.0199132 0.0514929 0.026889 0.0620414 -0.0253389 0.0658313 0.0119846 0.0408758 0.000503597 0.0377635 -0.0517473 0.0391617 0.0648837 0.0488715 0.0569075 -0.0505913 -0.00110737 0.0452269 0.0401092 0.0556725 0.0525769 -0.00202329 0.0644176 -0.0607052 0.0756317 0.0228664 0.061259 0.0517289 0.0143714 -0.0237915 -0.0438176 -0.0146496 -0.0100962 0.0204858 0.0312651 -0.00691776 -0.0208958 0.0490843 0.0105841 0.022283 0.071061 0.0439978 0.0654926 0.0536847 -0.00120431
internal_weight=397963 172005 225957 86282.9 85722.3 31847 27980 23746.6 53875.3 48553 202211 181942 5322.26 24694.1 23394.1 78078.3 57003.2 8204.55 20268.8 62996.3 21355.1 41641.2 20887.7 16715.4 12569.2 27536.8 15255.1 14171.3 7813.85 5551.87 25158.9 17761.5 6309.07 4172.33 6794.74 7397.45 12281.7 23100.8 118946 5518.28 3867.02 13541.2 3285.85 14716.9 4703.41 11585.1 10638.1 6809.18 12658.8 16609.7 4396.53 22018.4 5774.42 11087.8 8734.94 102336 33227.2 2395.89 3828.88 1246.72 1593.35 9585.71 6919.11 32311.1 3073.14 3655.99 4602.06 3599.14 3720.5 1844.34 32147.3 14884 3142.61 1625.68 4754.3 3863.47 5828.39 4025.83 16900.2 2783.35 432.638 11474 2543.94 10013.5 3030.14 6983.37 857.122 1516.94 1090.72 1046.4 3122.54 807.721 2936.36 825.99 11741.4 5173.06 4843.64 2582.16 1082.31 7849.92 10528.5 11969.8 1910.33 2666.6 841.799 2395.74 69108.9 755.818 1876.15 861.221 2203.49 4146.23 797.941 698.081 2732.56 3155.98 2162.8 3297.79 2467.92 10873.5 1529.93 745.669 1486.35 9830.45 740.538 6319.99 518.998
internal_count=1192773 630598 562175 354169 276429 88876 71863 75877 187553 174593 486298 427473 12960 58588 73534 330628 233688 23541 58825 159946 60024 99922 68084 51655 36295 103777 53511 38342 26061 19316 101059 74584 22552 16429 22514 26475 50266 52596 267527 20735 17013 33963 13275 39509 14743 38189 36035 21142 47189 41331 14925 48980 13781 28688 23792 226196 77813 10053 14893 3911 5992 37345 28340 73794 9844 13215 16691 13833 10407 6006 73119 36153 9074 5580 15379 11757 24882 11093 72400 10049 1243 47998 9305 24766 8505 16261 3003 3494 3458 2832 10083 2268 12503 2329 27079 13115 11668 10982 3616 20133 27971 28843 4802 9005 1935 10652 148383 2305 4401 2184 6851 15360 3174 2525 9237 9263 6275 11244 8976 27098 4698 2253 3315 25446 1710 15435 1598
cat_boundaries=0 1 2 3 4 5 6 8 9 10 11 13 14 15 16 17 18 19 20 21 22 23 24 25
cat_threshold=25434165 134 5 18 1 2098314 536871044 2 16779269 20 100868096 155324416 2 30 1073778720 8 200 20 16 150 6 8388608 192 17864256 34078720
is_linear=0
shrinkage=0.045


Tree=7
num_leaves=128
num_cat=33
split_feature=3 9 0 5 5 7 9 9 3 7 3 7 7 11 6 5 4 1 7 6 5 11 9 4 11 7 11 3 0 6 1 9 8 11 7 1 9 1 11 7 9 11 11 9 11 0 1 11 4 11 1 7 11 6 1 7 4 9 8 1 5 11 11 11 7 7 9 7 7 9 5 7 11 11 7 5 4 5 9 9 7 11 11 7 9 7 7 7 9 7 7 11 11 11 7 1 9 7 3 9 9 7 5 11 11 8 7 9 11 11 7 7 9 11 11 11 1 7 7 4 5 6 9 11 7 9 11
split_gain=205066 39626.7 21051.6 20599.5 11542.7 21816.5 14054.5 12216.3 10696.7 8968.04 9150.41 12812.6 8827.46 6100.47 5247.56 5533.81 5094.59 4301.41 4234.45 4222.83 4074.15 4159.43 3942.87 3746.7 3583.23 3461.41 3458.77 7420.95 3142.37 3073.92 2602.99 2526.57 2382.31 2378.44 2376.68 2387.07 2192.82 2596.57 3238.4 2181.11 2110.53 2097.92 2071.05 2064.9 2034.7 2018.89 2463.6 2010.39 2018.39 1956.38 1941.3 1880.78 1862.4 5820.16 1744.13 1895.58 1698.52 1668.07 2909.6 1649.78 1600.67 1476.81 1558.73 1478.23 1432.5 1544.05 2684.65 1799.62 1721.44 1745.95 1367.55 1324.66 1318.52 1254.54 1184.91 2569.08 1266.86 1179.62 1132.58 2329.4 1711.27 1131.81 1115.25 1113.94 1089.74 1912.96 1085.51 1110.59 1093.45 1083.62 6956.63 1068.28 1062.96 1021.99 998.563 986.534 983.291 1440.52 980.938 978.083 1226.8 1705.78 1295.62 1474.32 1120.92 973.71 1644.31 961.536 953.298 941.542 934.93 1031.75 875.908 865.9 863.258 858.895 856.754 848.645 1287.28 834.066 833.037 808.597 799.621 795.327 794.338 784.596 777.928
